<?xml version="1.0"?>
<opencv_storage>
<robot type_id="opencv-ml-ann-mlp">
  <layer_sizes type_id="opencv-matrix">
    <rows>1</rows>
    <cols>3</cols>
    <dt>i</dt>
    <data>
      6144 13 2</data></layer_sizes>
  <activation_function>SIGMOID_SYM</activation_function>
  <f_param1>6.6666666666666663e-001</f_param1>
  <f_param2>1.7159000000000000e+000</f_param2>
  <min_val>-9.4999999999999996e-001</min_val>
  <max_val>9.4999999999999996e-001</max_val>
  <min_val1>-9.7999999999999998e-001</min_val1>
  <max_val1>9.7999999999999998e-001</max_val1>
  <training_params>
    <train_method>BACKPROP</train_method>
    <dw_scale>1.0000000000000000e-002</dw_scale>
    <moment_scale>0.</moment_scale>
    <term_criteria><epsilon>9.9999997473787516e-005</epsilon>
      <iterations>100000</iterations></term_criteria></training_params>
  <input_scale>
    1.5571076697281845e-002 -1.6149430974609456e+000
    1.6197771482089483e-002 -1.6398315319486780e+000
    1.6323941103384781e-002 -1.6308394492810128e+000
    1.6521637401564319e-002 -1.6987783599679882e+000
    1.6638446322658557e-002 -1.6693907810400752e+000
    1.6155613868293787e-002 -1.6692211043204972e+000
    1.6034210524929839e-002 -1.6486604321883216e+000
    1.5724838184824404e-002 -1.6909817062323673e+000
    1.5896725440283237e-002 -1.7444763703396533e+000
    1.5683235619385952e-002 -1.6995773076579801e+000
    1.6841777996255060e-002 -1.7990627852428172e+000
    1.6263002889591163e-002 -1.7093577680023855e+000
    1.6028824006875348e-002 -1.7521031194182077e+000
    1.6029722890898414e-002 -1.7369349732494925e+000
    1.6076007695985453e-002 -1.7695091328223989e+000
    1.5365278956664162e-002 -1.7267646827489249e+000
    1.5652851950265348e-002 -1.7583370357464740e+000
    1.5466755954024193e-002 -1.7258321852031995e+000
    1.5865944833524638e-002 -1.7648974824339789e+000
    1.5603240779386558e-002 -1.7453339328942392e+000
    1.6147472026886701e-002 -1.7892936860269215e+000
    1.6594796596738012e-002 -1.8003378736437321e+000
    1.5636912913932266e-002 -1.7665988518240143e+000
    1.6472667241161202e-002 -1.9071034395272939e+000
    1.6375854902634667e-002 -1.8709414226260108e+000
    1.6191717324339407e-002 -1.7963168303037969e+000
    1.5682472209712965e-002 -1.7635313392017697e+000
    1.6289852233596292e-002 -1.8295055472827073e+000
    1.5653353378868012e-002 -1.7697606790370179e+000
    1.5735682984752631e-002 -1.8077302476531296e+000
    1.5509774611772982e-002 -1.7666371843505224e+000
    1.6035869996932364e-002 -1.8404978885764871e+000
    1.6405651721303042e-002 -1.8124339044487170e+000
    1.6452256175469387e-002 -1.8156239850785860e+000
    1.5318678291830709e-002 -1.7864496731758766e+000
    1.5207224661646196e-002 -1.8112890802353596e+000
    1.5498398989187230e-002 -1.8304716234729348e+000
    1.5649904687424651e-002 -1.8563767893511813e+000
    1.6178856553318452e-002 -1.9114163385134799e+000
    1.6756744671015678e-002 -1.9304168831121276e+000
    1.7116769138454946e-002 -1.8938482425333365e+000
    1.7802847500907982e-002 -1.8472573668799281e+000
    1.8480560398225741e-002 -1.9237383347867367e+000
    1.8709053965123887e-002 -1.8675644940186165e+000
    1.8259159359210062e-002 -1.8254811940315012e+000
    1.8314903802958457e-002 -1.8576545285857864e+000
    1.7794690097709301e-002 -1.7642164182586078e+000
    1.8469694941770410e-002 -1.8150872826704134e+000
    1.8835317406951588e-002 -1.8615572037203818e+000
    1.9349425703870122e-002 -1.8404989449276461e+000
    1.8303167965152769e-002 -1.7457735921048092e+000
    1.8713395292693558e-002 -1.7842331297521752e+000
    1.9103597066601381e-002 -1.8189353492699742e+000
    1.8661823515148404e-002 -1.7835371330906118e+000
    1.8411890405558812e-002 -1.7925290444840474e+000
    1.7944083090811608e-002 -1.7751825057695769e+000
    1.8601135248640464e-002 -1.8322118219910857e+000
    1.6989962144417250e-002 -1.7161884380402423e+000
    1.7855311636288004e-002 -1.8461116852519204e+000
    1.9022823891347809e-002 -1.8298144885963130e+000
    1.7394755471325837e-002 -1.6545725739987314e+000
    1.7609211974702783e-002 -1.6571526269050656e+000
    1.6849377674403150e-002 -1.6022955817039568e+000
    1.6503659144786641e-002 -1.5890666090837424e+000
    1.6158329756292833e-002 -1.6770037954209633e+000
    1.5655789186417010e-002 -1.6108688802166931e+000
    1.5605354873959747e-002 -1.6002919867177292e+000
    1.6470523645131959e-002 -1.6905816055753302e+000
    1.6127205782797468e-002 -1.6403672167645424e+000
    1.6135523880328660e-002 -1.6900040368944231e+000
    1.6386053663550008e-002 -1.7209257788075971e+000
    1.6022981737827485e-002 -1.7398287670324344e+000
    1.5913044774522413e-002 -1.7432361668470862e+000
    1.6023040038533134e-002 -1.7768406899873350e+000
    1.6495573439236490e-002 -1.8041051569793529e+000
    1.6504805021345555e-002 -1.7524566188735833e+000
    1.6777978924915091e-002 -1.8435803032972178e+000
    1.6126767390286463e-002 -1.7810478699962800e+000
    1.6456350256154384e-002 -1.8178389765101968e+000
    1.6453767305355794e-002 -1.8122649417756167e+000
    1.5940840502101272e-002 -1.7775934878950310e+000
    1.6503367696331074e-002 -1.8418937161083788e+000
    1.7050478416062928e-002 -1.8672303684447962e+000
    1.6152033930401034e-002 -1.8171038171701164e+000
    1.6726462517314498e-002 -1.8608189550512380e+000
    1.7130172241632057e-002 -1.8423092384631430e+000
    1.6816311661560009e-002 -1.8838272944676151e+000
    1.7073547735806247e-002 -1.9673198635103413e+000
    1.7179509489847165e-002 -1.9439433059642535e+000
    1.6965120933471689e-002 -1.8726262058946368e+000
    1.6372009968779074e-002 -1.8096918161918298e+000
    1.6923624374132813e-002 -1.8877900045907674e+000
    1.5928393751247251e-002 -1.8310067864528983e+000
    1.5987290913737254e-002 -1.8630903661258809e+000
    1.5596942632053292e-002 -1.8194576291844071e+000
    1.5736948785169489e-002 -1.8610815384746868e+000
    1.6061747139417132e-002 -1.8526460480215785e+000
    1.6346319822197856e-002 -1.8870269442363405e+000
    1.5439643987095566e-002 -1.8716892228642161e+000
    1.5372320011898826e-002 -1.9167819024360513e+000
    1.5697747639063942e-002 -1.9452125616073401e+000
    1.6011284052942561e-002 -1.9640508438276210e+000
    1.5775370589637926e-002 -1.9026223743288313e+000
    1.6188329779438605e-002 -1.8705229623717989e+000
    1.6977853009933333e-002 -1.8720104116428873e+000
    1.7859691931222686e-002 -1.9386270360581959e+000
    1.8544926619976469e-002 -2.0406042470052679e+000
    1.7978689354111791e-002 -1.9130181600839427e+000
    1.8318525137364067e-002 -1.8854996230672587e+000
    1.8701937609195047e-002 -1.8984693094476923e+000
    1.8468512360910912e-002 -1.7989210492496794e+000
    1.8945398476211597e-002 -1.8715347209000457e+000
    1.9794444271115770e-002 -1.9836860937411016e+000
    1.9037105003044095e-002 -1.8552112089871304e+000
    1.7472747386614744e-002 -1.6948564965016302e+000
    1.8023966659444442e-002 -1.7530453286626320e+000
    1.8096972060869281e-002 -1.7963399171848580e+000
    1.8447173481473348e-002 -1.8111171393060799e+000
    1.8891208925657876e-002 -1.8556114862571804e+000
    1.8211844474578878e-002 -1.8233525241810520e+000
    1.8211632603903478e-002 -1.8222472861405801e+000
    1.7729514522629660e-002 -1.7953244110653319e+000
    1.8478140320496595e-002 -1.8816906226372365e+000
    1.8862283903280912e-002 -1.8242523146458824e+000
    1.7633697900882900e-002 -1.7033312472352840e+000
    1.7746786786709951e-002 -1.7271426426351648e+000
    1.7015433270252182e-002 -1.6434072633518564e+000
    1.6794115029665949e-002 -1.6486222920788740e+000
    1.6206453874746923e-002 -1.6507430875277938e+000
    1.5560753213583486e-002 -1.5770082393718599e+000
    1.5575486609767914e-002 -1.5833223828667644e+000
    1.6309526347997701e-002 -1.6789104087040014e+000
    1.5920827525383718e-002 -1.6330220233179298e+000
    1.5971065633862837e-002 -1.6744901790170239e+000
    1.6184899295325766e-002 -1.7084702625196855e+000
    1.5872189845639439e-002 -1.7310134663797965e+000
    1.6080430314659874e-002 -1.7937337148614645e+000
    1.5849900750550421e-002 -1.7706603409900612e+000
    1.6047911619114067e-002 -1.7438730626103953e+000
    1.6293585918748237e-002 -1.7672721584013711e+000
    1.6643778338833140e-002 -1.8498370782303117e+000
    1.5997207660858898e-002 -1.7655965740931292e+000
    1.6098460383891899e-002 -1.7917203110595878e+000
    1.6069860502120194e-002 -1.7814588213778959e+000
    1.5895471069017630e-002 -1.7891866542566868e+000
    1.6410348654367902e-002 -1.8244791200374029e+000
    1.6861698887901667e-002 -1.8549876121797535e+000
    1.6251094375951170e-002 -1.8174140543772057e+000
    1.6310414256329463e-002 -1.8401642369908848e+000
    1.6788581268294429e-002 -1.8365508723137798e+000
    1.6416148613468986e-002 -1.8554156540032685e+000
    1.6575409114317673e-002 -1.9314298144159687e+000
    1.7197888540298675e-002 -1.9718198158525777e+000
    1.7123529374242795e-002 -1.9431128808962181e+000
    1.6206972704324335e-002 -1.8213550277240682e+000
    1.6673225241192836e-002 -1.8805016182745351e+000
    1.5646424074184196e-002 -1.8215045359696103e+000
    1.5723125765786990e-002 -1.8558903805687859e+000
    1.5620251094511921e-002 -1.8550907728434634e+000
    1.5636694003365481e-002 -1.8931568811217492e+000
    1.6024766027682085e-002 -1.8567743779455921e+000
    1.6293848307801579e-002 -1.9026947387050677e+000
    1.5240719600285895e-002 -1.8709797680731923e+000
    1.5306812634942086e-002 -1.9210049856852318e+000
    1.5798876016095531e-002 -1.9656434910025524e+000
    1.5912273008353357e-002 -1.9570201482059351e+000
    1.5781247971141540e-002 -1.9042705885177460e+000
    1.6100617813243689e-002 -1.8605797275375773e+000
    1.6880712606311708e-002 -1.8295477091412118e+000
    1.7705336916479457e-002 -1.9374697254318949e+000
    1.7966243304686557e-002 -1.9927558198781508e+000
    1.8339956067222770e-002 -1.9342103666610300e+000
    1.8313624482225798e-002 -1.8900096504335171e+000
    1.8714070995498606e-002 -1.9244303007037733e+000
    1.8081655517953335e-002 -1.8408847379706776e+000
    1.8548604748658264e-002 -1.8899703338543581e+000
    1.9777042940660180e-002 -1.9960686910823453e+000
    1.8419538372067033e-002 -1.7996327549946920e+000
    1.7009647920091041e-002 -1.6661355129346318e+000
    1.7168285895898926e-002 -1.7012953785412224e+000
    1.7816704320031768e-002 -1.7689442146317256e+000
    1.8215117210501168e-002 -1.7677337559524466e+000
    1.8790232960293866e-002 -1.8459166950993451e+000
    1.7863621806327116e-002 -1.7650959641966080e+000
    1.8038826226955136e-002 -1.7693082057605163e+000
    1.7678361670113676e-002 -1.7467904983564704e+000
    1.8245069760844633e-002 -1.8288510403132359e+000
    1.8739860824034466e-002 -1.8119660668191420e+000
    1.7620310293338312e-002 -1.6909204913642872e+000
    1.7793339072004862e-002 -1.6801995895136019e+000
    1.7227779264244295e-002 -1.6311015296254152e+000
    1.6940940272867015e-002 -1.6325822798673630e+000
    1.6296137699555732e-002 -1.6451339010980071e+000
    1.5927455686300506e-002 -1.5749219872668097e+000
    1.5820415418801095e-002 -1.5873150136863765e+000
    1.5340611468606274e-002 -1.5881185396547637e+000
    1.6175426088816055e-002 -1.6889840741072097e+000
    1.6062444832663076e-002 -1.6901898794751065e+000
    1.5909637915020185e-002 -1.6949446393037577e+000
    1.5613116429647921e-002 -1.7126101759854280e+000
    1.5701257412349783e-002 -1.8039623248403303e+000
    1.5621015177054698e-002 -1.7995781412899798e+000
    1.6007614902196547e-002 -1.7614093397738415e+000
    1.5813106467136649e-002 -1.7475365158860656e+000
    1.5873206316830906e-002 -1.7777991074850614e+000
    1.5653716231240865e-002 -1.7602976609559666e+000
    1.5669245468079344e-002 -1.7523439515135399e+000
    1.6029827965135929e-002 -1.7712959901475203e+000
    1.6206083786655244e-002 -1.7994540890253985e+000
    1.6209912875243117e-002 -1.8054755340568405e+000
    1.6705610332271914e-002 -1.8334407339668426e+000
    1.6177079099271546e-002 -1.8299357809675980e+000
    1.6269082771744704e-002 -1.8374379554231191e+000
    1.6650129690919061e-002 -1.8539126547519760e+000
    1.6721925326994857e-002 -1.9072948399754490e+000
    1.6421971359302248e-002 -1.9456126067592379e+000
    1.6842840688879451e-002 -1.9842470411565600e+000
    1.7017821565418499e-002 -1.9742698947024200e+000
    1.6371196533871642e-002 -1.8809335446237525e+000
    1.7161766231366015e-002 -2.0087438760332224e+000
    1.5935862086666475e-002 -1.9462620136560875e+000
    1.5381950362204454e-002 -1.9152359385511475e+000
    1.5513588635959920e-002 -1.9811222059278817e+000
    1.5701119993358121e-002 -2.0097433591498395e+000
    1.5846526382346501e-002 -1.9934552890744701e+000
    1.6435544459665625e-002 -2.0663783933158175e+000
    1.5774710473087740e-002 -2.0214164706228148e+000
    1.5278542053890917e-002 -1.9609281176547380e+000
    1.5050242297917600e-002 -1.9269685227869497e+000
    1.5531338941648484e-002 -1.9506622123141846e+000
    1.5391398850746998e-002 -1.8916762111322856e+000
    1.5829730095548774e-002 -1.9003214081370696e+000
    1.6498660792923770e-002 -1.8578670528603090e+000
    1.7732352657363178e-002 -1.9989005632449039e+000
    1.9249611456696621e-002 -2.1231863112654072e+000
    1.8606990278977584e-002 -1.9798723703988290e+000
    1.7662281811903775e-002 -1.8621091395978553e+000
    1.8413239094252395e-002 -1.9305404369414387e+000
    1.8170610367340856e-002 -1.8648670473433990e+000
    1.8760260921712072e-002 -1.8740160642153094e+000
    1.9127093623506331e-002 -1.9124816588551152e+000
    1.8163502993944931e-002 -1.7992679572930450e+000
    1.6906215252180293e-002 -1.6688849627509401e+000
    1.7530493743491346e-002 -1.7298840790452354e+000
    1.7774844157958682e-002 -1.7446855962186825e+000
    1.8392508086082754e-002 -1.7542949379249408e+000
    1.8793392957818969e-002 -1.8399626629178951e+000
    1.7929381908771084e-002 -1.7773567042182954e+000
    1.8658812729106446e-002 -1.8394479548777436e+000
    1.7832317920213198e-002 -1.7887513189966238e+000
    1.7819577723414692e-002 -1.7828063236616318e+000
    1.8765188630310719e-002 -1.8025750840235379e+000
    1.7505914183793016e-002 -1.6820265878261123e+000
    1.7894665979195194e-002 -1.6716600468898177e+000
    1.7376055438879850e-002 -1.6275571927750794e+000
    1.6253316501326599e-002 -1.5810220134802337e+000
    1.6641419968056920e-002 -1.6518590439721261e+000
    1.6532513629224730e-002 -1.6306175645015106e+000
    1.5987953174789359e-002 -1.5854720231666115e+000
    1.5550299685231361e-002 -1.6348178157175970e+000
    1.6075579352975655e-002 -1.7126233289259423e+000
    1.5964928134531344e-002 -1.7337151719427968e+000
    1.6048298214465968e-002 -1.7416224586079971e+000
    1.5894765028753054e-002 -1.7707525135603699e+000
    1.5755296547020740e-002 -1.8187989359102394e+000
    1.5585647373529604e-002 -1.8053374874338457e+000
    1.6640171613351958e-002 -1.8844994352121092e+000
    1.6193789691405582e-002 -1.7930766419019444e+000
    1.6150128289489054e-002 -1.8113137930390044e+000
    1.6075254365042091e-002 -1.7987061402027453e+000
    1.5813341837620173e-002 -1.7950025526393851e+000
    1.5876550402580205e-002 -1.7929161561770932e+000
    1.5928189000710531e-002 -1.8266219600457685e+000
    1.6133607411810948e-002 -1.8467218483876460e+000
    1.6711518800155908e-002 -1.8796479717127741e+000
    1.6212469625732858e-002 -1.8723472361813627e+000
    1.6531679558339465e-002 -1.8751647956173623e+000
    1.7183133345388939e-002 -1.9212379569034872e+000
    1.7113786258980863e-002 -1.9493417491182010e+000
    1.6627554298409956e-002 -1.9982757219339107e+000
    1.6633689455861189e-002 -2.0083199816826687e+000
    1.7414143528405677e-002 -2.0463691758201481e+000
    1.7097323960942979e-002 -2.0166700691074171e+000
    1.6986010055612639e-002 -2.0652157225949033e+000
    1.6180015334312743e-002 -2.1166927203424137e+000
    1.5267224997409210e-002 -2.0966988996441982e+000
    1.5292765075487125e-002 -2.1872295192488371e+000
    1.5410526341228298e-002 -2.1862766953383050e+000
    1.4589234843821663e-002 -2.0428402408694093e+000
    1.4883138282513522e-002 -2.1091533108933449e+000
    1.4644013204623307e-002 -2.0968832241096327e+000
    1.4723843367630629e-002 -2.1027050599773456e+000
    1.6048053660371545e-002 -2.1578900725463881e+000
    1.5993226399073902e-002 -2.0711228186800703e+000
    1.6080087354622682e-002 -1.9992908610914200e+000
    1.5855050934878861e-002 -1.8871285624633196e+000
    1.5819561666518475e-002 -1.7870454839713548e+000
    1.7453572297095925e-002 -1.9379698668454013e+000
    1.8273990786881585e-002 -1.9683698647583878e+000
    1.8519987552959919e-002 -1.9022672929397402e+000
    1.7937094591648221e-002 -1.8391928061650731e+000
    1.8386247060978286e-002 -1.8237406013341795e+000
    1.8542201081154217e-002 -1.7387728323363305e+000
    1.8613352114694375e-002 -1.7418995354001485e+000
    1.9242801619592853e-002 -1.8356258259261611e+000
    1.9327413805961206e-002 -1.8319627228936086e+000
    1.7665351843741618e-002 -1.6872514028849881e+000
    1.7393882802241353e-002 -1.6408229443447675e+000
    1.7235381541955287e-002 -1.6765512211823410e+000
    1.7943922598036163e-002 -1.6555404777950031e+000
    1.8015213700015596e-002 -1.7090861663740986e+000
    1.6849823778450828e-002 -1.6500791714468632e+000
    1.8161244385840273e-002 -1.7545059308463551e+000
    1.7298665017784362e-002 -1.6975344731142439e+000
    1.7087515175804695e-002 -1.6639985016438381e+000
    1.7911979165251314e-002 -1.7218956161833852e+000
    1.6748290093928826e-002 -1.5715478871469881e+000
    1.7093643687354110e-002 -1.5960172314275987e+000
    1.6656790575934291e-002 -1.5480900479323692e+000
    1.6412804371813736e-002 -1.5535500900034642e+000
    1.6597755644208397e-002 -1.6388307775364817e+000
    1.7012505489436235e-002 -1.6477826745482527e+000
    1.6298669203000701e-002 -1.6114339015585812e+000
    1.5612096256234758e-002 -1.6416862646585906e+000
    1.6064510255631201e-002 -1.7213887715587670e+000
    1.6196043481211189e-002 -1.7755876716484982e+000
    1.5792630025808840e-002 -1.7266608828217664e+000
    1.5903967715741700e-002 -1.7801083864690890e+000
    1.5614420050840313e-002 -1.7891522974921192e+000
    1.5636403852662347e-002 -1.8166150618825221e+000
    1.6344760126828131e-002 -1.8459849919430771e+000
    1.6287356064929148e-002 -1.8185608634877437e+000
    1.6033588647819719e-002 -1.7930896637811720e+000
    1.6001293508316122e-002 -1.7871920916074029e+000
    1.5674349475046343e-002 -1.7717612888757743e+000
    1.5791853041952048e-002 -1.7837274007385835e+000
    1.5714958981506013e-002 -1.7948728151020081e+000
    1.5850622275670682e-002 -1.8139527611431223e+000
    1.6237727037872757e-002 -1.8396958121361313e+000
    1.5776358833005204e-002 -1.8261135349203523e+000
    1.6103398379175387e-002 -1.8285025445306529e+000
    1.7023919419458043e-002 -1.9026256608318108e+000
    1.6971809702753263e-002 -1.9509499344022083e+000
    1.6394835489463942e-002 -2.0089528772982423e+000
    1.6276198138859003e-002 -2.0403376952641108e+000
    1.7031626319324231e-002 -2.0890100710475896e+000
    1.6914970365610283e-002 -2.1230301495789190e+000
    1.7195172883799570e-002 -2.2994449643300068e+000
    1.6102681133988207e-002 -2.3053671823493116e+000
    1.4996954292043056e-002 -2.2293686695802575e+000
    1.5199889312809968e-002 -2.2866785862616616e+000
    1.5062517429008403e-002 -2.2509497772183629e+000
    1.4201673982987478e-002 -2.1295748272584558e+000
    1.4718695477230479e-002 -2.2062273184977257e+000
    1.5167699458605972e-002 -2.2998927143364796e+000
    1.5020714946180800e-002 -2.2804664012933782e+000
    1.6221473310524055e-002 -2.3329954650528704e+000
    1.6879961728485094e-002 -2.2854262468816784e+000
    1.6836910937025482e-002 -2.1573294335143482e+000
    1.6312017962381811e-002 -1.9997757259119988e+000
    1.6244991189424966e-002 -1.8563770288963124e+000
    1.7742751034539945e-002 -1.9369169879372774e+000
    1.8091374218608496e-002 -1.9269467277844072e+000
    1.8248544748219814e-002 -1.8196406048939184e+000
    1.7786364070106600e-002 -1.7826595131693748e+000
    1.7938054468850214e-002 -1.7434080557582516e+000
    1.8349397836643633e-002 -1.7305229721653674e+000
    1.8156078229569047e-002 -1.7068874973679375e+000
    1.8776222641081534e-002 -1.7759177248022950e+000
    1.9053635460277839e-002 -1.7615539641014011e+000
    1.7588253141431698e-002 -1.6639743775590203e+000
    1.7637777487277424e-002 -1.6642502900495342e+000
    1.7545629229912978e-002 -1.7161296399162502e+000
    1.7420509745545005e-002 -1.6300619833331398e+000
    1.7706522048558087e-002 -1.7126844243396959e+000
    1.6784444671011423e-002 -1.6704518744006605e+000
    1.8303225319481382e-002 -1.7706191541203060e+000
    1.7487922399506420e-002 -1.7148573429135046e+000
    1.7460472596201728e-002 -1.7109184516587670e+000
    1.8045379687686085e-002 -1.7229041082766954e+000
    1.7210650525854746e-002 -1.6296846938410554e+000
    1.7408874021555141e-002 -1.6441023525356777e+000
    1.6885155503603387e-002 -1.5496150449676012e+000
    1.6744842242942152e-002 -1.5656427497150911e+000
    1.7802924269554737e-002 -1.7234926209526087e+000
    1.7920811230563650e-002 -1.7001302940043064e+000
    1.7354849239218113e-002 -1.6918911954756801e+000
    1.6468654975527235e-002 -1.7176415028642156e+000
    1.6239147953538008e-002 -1.7275360251525671e+000
    1.7054351958516217e-002 -1.8290792475508642e+000
    1.6632901932417246e-002 -1.7799185175059360e+000
    1.6200474342368300e-002 -1.7726019009607983e+000
    1.6016854094451846e-002 -1.8186756470581156e+000
    1.5995620483604086e-002 -1.8145508046221825e+000
    1.6342103174375514e-002 -1.8334283370870814e+000
    1.6154343218207821e-002 -1.8339025824860689e+000
    1.6655808221426538e-002 -1.8390788244491802e+000
    1.6590735869219608e-002 -1.8113528411501552e+000
    1.5953105585195526e-002 -1.7952941321053966e+000
    1.5996686381139800e-002 -1.8106725489509192e+000
    1.6040893330679668e-002 -1.8320991739826278e+000
    1.5626614846875629e-002 -1.7819921859312102e+000
    1.6360786822938789e-002 -1.8349401507012657e+000
    1.6144707635416689e-002 -1.8347307034248537e+000
    1.6921404950114703e-002 -1.9248098130755475e+000
    1.7348691982315253e-002 -2.0300034939782932e+000
    1.5803281567641079e-002 -1.9456849758636194e+000
    1.5822562895515591e-002 -2.0716255562485766e+000
    1.5226127856824078e-002 -2.0792727695908213e+000
    1.6847286271490267e-002 -2.3211148097613910e+000
    1.7006177310720481e-002 -2.3583923749117006e+000
    1.8125234364061875e-002 -2.5131500552170078e+000
    1.6111157199503668e-002 -2.3355423954566210e+000
    1.4882238491035345e-002 -2.2248946544097841e+000
    1.5406996167839082e-002 -2.3084815924812228e+000
    1.5102315141008226e-002 -2.2700217972663075e+000
    1.3977804754574212e-002 -2.1264567495083790e+000
    1.4599511170864086e-002 -2.2274682757832633e+000
    1.5122399682724639e-002 -2.3866387213557210e+000
    1.5619900286110851e-002 -2.4168076668878897e+000
    1.6384030026581776e-002 -2.4373195144305462e+000
    1.5894669417474132e-002 -2.2612059468906653e+000
    1.5788173973540844e-002 -2.1859102775271433e+000
    1.5734243314822993e-002 -2.1168176631049360e+000
    1.5104575147875327e-002 -1.8616388869756340e+000
    1.6596431570387989e-002 -1.9838663023603071e+000
    1.6233854865818534e-002 -1.8311401768289359e+000
    1.6437190713128120e-002 -1.7437119814843414e+000
    1.6821832758135230e-002 -1.7074160249507258e+000
    1.7899358543194060e-002 -1.7368770414949379e+000
    1.7913468191992944e-002 -1.6947420443067611e+000
    1.7336048198964640e-002 -1.7208091652734185e+000
    1.7378922061477221e-002 -1.7112031472675961e+000
    1.8654622892377241e-002 -1.7637501787054768e+000
    1.7981126053575276e-002 -1.6833758962537615e+000
    1.8419761125045921e-002 -1.6959337207274423e+000
    1.8252871884107191e-002 -1.7194639907016689e+000
    1.7620437447515857e-002 -1.6447839288806172e+000
    1.7398764350344934e-002 -1.6709027620741976e+000
    1.6910228394794585e-002 -1.6712942396855315e+000
    1.8020947228264389e-002 -1.7203568550410968e+000
    1.7279224269671840e-002 -1.6812273804289042e+000
    1.7557367010082692e-002 -1.6959580466644164e+000
    1.8194738882589670e-002 -1.7146375356497598e+000
    1.7043263676755648e-002 -1.6219505932379126e+000
    1.7136017304507367e-002 -1.5999736157053723e+000
    1.6356149669541666e-002 -1.5078812266777459e+000
    1.6526535124234056e-002 -1.5420831226636491e+000
    1.8451537546311330e-002 -1.8280201840524153e+000
    1.8382314277273697e-002 -1.7712672828601586e+000
    1.7401458142143222e-002 -1.7254374388798916e+000
    1.7068497813818671e-002 -1.7791877006880510e+000
    1.6988252221771950e-002 -1.8165295411423292e+000
    1.6834152758260005e-002 -1.8124771136393272e+000
    1.6434911199174992e-002 -1.7311439796464325e+000
    1.6246168493883318e-002 -1.7615488409796340e+000
    1.6257291222037094e-002 -1.8061076390958353e+000
    1.6092344991331463e-002 -1.8027257901003459e+000
    1.6472783802797902e-002 -1.8420102173771511e+000
    1.6463094517298518e-002 -1.8419066937329935e+000
    1.6273533248637846e-002 -1.7854390764219807e+000
    1.6272644021369461e-002 -1.7582204421184433e+000
    1.5334441674119726e-002 -1.7521425141452516e+000
    1.5126093364279050e-002 -1.7171717419257739e+000
    1.5524992724969570e-002 -1.7131090186636067e+000
    1.5248726517954267e-002 -1.6880703320292467e+000
    1.5718636903832281e-002 -1.7707792978686294e+000
    1.5409036668366965e-002 -1.7569970620192712e+000
    1.5613507238973645e-002 -1.8961117541044066e+000
    1.5162444252093820e-002 -1.9171466714462913e+000
    1.4177483552193837e-002 -1.9119349247529975e+000
    1.4110963546474483e-002 -2.1048853956824436e+000
    1.3990450307738761e-002 -2.1513648407745425e+000
    1.4774701158290288e-002 -2.1956261257016392e+000
    1.5974641529423930e-002 -2.2353087682958197e+000
    1.7419544797830186e-002 -2.3673990882384452e+000
    1.6543514996580567e-002 -2.2908829338122043e+000
    1.5538444977805895e-002 -2.2693528927109847e+000
    1.5630515199498551e-002 -2.3304353852204747e+000
    1.5320316960070622e-002 -2.2943998494962909e+000
    1.4319442868552400e-002 -2.1141634578069866e+000
    1.4505075834039961e-002 -2.1450244286957667e+000
    1.5449702272843516e-002 -2.3654597729885771e+000
    1.5248193637167794e-002 -2.3551198124835118e+000
    1.5646473745982235e-002 -2.4002435796515127e+000
    1.5118901430987160e-002 -2.2176188634665808e+000
    1.4988288522891646e-002 -2.1356526825058348e+000
    1.4983694991261384e-002 -2.0955767709206992e+000
    1.3920577089087350e-002 -1.8827580512990640e+000
    1.4916948627332970e-002 -1.9333430917354053e+000
    1.5613155266528506e-002 -1.8851026275372871e+000
    1.5806600954142436e-002 -1.7840759957883860e+000
    1.6900060653985829e-002 -1.7704825447032773e+000
    1.8976809497500167e-002 -1.8197404821709982e+000
    1.9166846278407250e-002 -1.8361382381231326e+000
    1.8619090622092552e-002 -1.8404084456575533e+000
    1.8894993755569949e-002 -1.8154939833476791e+000
    1.9622445128988197e-002 -1.8482474507208884e+000
    1.9006866302964744e-002 -1.7289460169161144e+000
    1.9721218115409792e-002 -1.7608230460187315e+000
    1.9290884841380824e-002 -1.7664938833321582e+000
    1.8511574144443023e-002 -1.6836717436136273e+000
    1.8397651509040193e-002 -1.7387970872651202e+000
    1.7750273219224309e-002 -1.6928266518953088e+000
    1.9348483257562384e-002 -1.7671614708573644e+000
    1.8561161485776054e-002 -1.7376782610017012e+000
    1.8624779502931513e-002 -1.7385344771724525e+000
    1.9455062330957180e-002 -1.7706422800019956e+000
    1.8215965224185289e-002 -1.6806396486599522e+000
    1.8000158190860843e-002 -1.6609431683019331e+000
    1.6968169366523744e-002 -1.5861198317374339e+000
    1.6205857885522330e-002 -1.5079164908719349e+000
    1.8151401266007870e-002 -1.7846717030471309e+000
    1.8400172527669154e-002 -1.7600641221407338e+000
    1.7526350411580065e-002 -1.7338568085741708e+000
    1.7178425977261057e-002 -1.8129374558145153e+000
    1.7262167764470041e-002 -1.8191036791796287e+000
    1.6506186634404934e-002 -1.7698955120962530e+000
    1.6352729160465724e-002 -1.7117803274758943e+000
    1.6198655719423319e-002 -1.7355702556524983e+000
    1.6263279349404667e-002 -1.7850885190656074e+000
    1.6541524835555974e-002 -1.8175985027640671e+000
    1.6682132404184789e-002 -1.8245089333005435e+000
    1.6459038687830694e-002 -1.7952108625941050e+000
    1.6371298206604514e-002 -1.7645920709833010e+000
    1.6134113026497993e-002 -1.7048379431332881e+000
    1.5243344503166726e-002 -1.7107024837065801e+000
    1.5185343452578498e-002 -1.7018431340782616e+000
    1.5639005219914674e-002 -1.7107954638785230e+000
    1.5363359856858837e-002 -1.6967367784771361e+000
    1.4892446630776672e-002 -1.7239779885437185e+000
    1.5024723939685665e-002 -1.7904462694792085e+000
    1.4544056926583140e-002 -1.8708158939491764e+000
    1.4575362195581934e-002 -1.9841579369818978e+000
    1.3339862859959325e-002 -2.0049496262736484e+000
    1.3251590523888863e-002 -2.1215165400625886e+000
    1.3380392762849937e-002 -2.1354469687948363e+000
    1.4252824443387274e-002 -2.1528551968773537e+000
    1.5448897471751519e-002 -2.1748001500412109e+000
    1.6889119526400057e-002 -2.2814385626912079e+000
    1.6975387562137189e-002 -2.3432097474164371e+000
    1.6319981067234250e-002 -2.3217115923029676e+000
    1.6057623621090034e-002 -2.3241498569668169e+000
    1.5974174733433873e-002 -2.3021828490827438e+000
    1.4321496451990306e-002 -2.0916204580121081e+000
    1.4654579081924392e-002 -2.1442789463801515e+000
    1.5145745914092191e-002 -2.3392965177313347e+000
    1.4996197157746855e-002 -2.3028088944973413e+000
    1.5436721404310631e-002 -2.3276370631785528e+000
    1.4746250436683756e-002 -2.1998245740724300e+000
    1.4556966086732914e-002 -2.1670816775547035e+000
    1.4225030712713128e-002 -2.1086914575559983e+000
    1.3081735261784114e-002 -1.9328263849286029e+000
    1.4331123726382887e-002 -1.9884434170356255e+000
    1.4567754180795294e-002 -1.8743843712623276e+000
    1.5017365489003582e-002 -1.7783063633228409e+000
    1.6017618464192029e-002 -1.7811973104049732e+000
    1.8298966923638887e-002 -1.8264111748546241e+000
    1.9845848871950074e-002 -1.9545798537814638e+000
    1.9576694809104098e-002 -1.9502116924117034e+000
    1.9111558459018824e-002 -1.8649695796259200e+000
    1.9979996603548676e-002 -1.8969103918250083e+000
    1.9326117024119065e-002 -1.7428016244964515e+000
    2.0003572952686156e-002 -1.7705543440859710e+000
    1.9485213366681825e-002 -1.7590044399946223e+000
    1.8549025775360745e-002 -1.6729454675492024e+000
    1.8532975617016431e-002 -1.7235667323825281e+000
    1.8059216696657422e-002 -1.6786471900892994e+000
    1.9555520978538868e-002 -1.7653513759554789e+000
    1.9008300379325493e-002 -1.7605306779899088e+000
    1.8829789703891299e-002 -1.7374964285102554e+000
    1.9380602352573609e-002 -1.7384861753171683e+000
    1.8441343543248737e-002 -1.7073610563791122e+000
    1.7355877197619593e-002 -1.6087245221507875e+000
    1.6505146568674075e-002 -1.5300663848841074e+000
    1.5851753437086370e-002 -1.4687404404862288e+000
    1.8665135266662355e-002 -1.8414044756527490e+000
    1.8069300562244230e-002 -1.7602510297719589e+000
    1.7656583007944506e-002 -1.7583013912078069e+000
    1.7320169334192861e-002 -1.8095453104390067e+000
    1.7511958426880508e-002 -1.8195758708311078e+000
    1.5868234353264166e-002 -1.7054573778722488e+000
    1.6462897219322786e-002 -1.7219406543925002e+000
    1.5974614086695847e-002 -1.7083328373903428e+000
    1.5999122648132705e-002 -1.7543799846660755e+000
    1.6562754588716200e-002 -1.7858198608333644e+000
    1.6369189584789015e-002 -1.7018111029043150e+000
    1.6548189758749693e-002 -1.7387419382229141e+000
    1.6473584280658947e-002 -1.7669880281992514e+000
    1.6116071594385745e-002 -1.6820190436664264e+000
    1.4811235550937336e-002 -1.6440471461540442e+000
    1.5057326971477955e-002 -1.6864206208055310e+000
    1.5328942897746320e-002 -1.7102720575914108e+000
    1.5030731301311480e-002 -1.7006198843769560e+000
    1.4628751176158715e-002 -1.7253218797881475e+000
    1.4841916017139715e-002 -1.7725488271898289e+000
    1.4281441570775195e-002 -1.9519670318341666e+000
    1.4049388454391491e-002 -1.9799602443224578e+000
    1.3470695049539376e-002 -2.0403292037534464e+000
    1.2991992727257729e-002 -2.0675828425950158e+000
    1.3113991716777405e-002 -2.1033906000016902e+000
    1.3543861898578142e-002 -2.0794665107852652e+000
    1.5041609277585766e-002 -2.1518454605803350e+000
    1.7018232285912038e-002 -2.2915860164994175e+000
    1.6993232623378027e-002 -2.2857920882327183e+000
    1.6491591137815419e-002 -2.2483535917888355e+000
    1.6463112223873980e-002 -2.3083635211046163e+000
    1.6019624690830188e-002 -2.2528550770568692e+000
    1.4765137251718677e-002 -2.0367100635198132e+000
    1.5106102820061423e-002 -2.1396715637272714e+000
    1.5059763119488038e-002 -2.2406776127066843e+000
    1.5020707981825138e-002 -2.2180578786495118e+000
    1.4499238889304628e-002 -2.0832299304168753e+000
    1.5011615518927402e-002 -2.1824029609183504e+000
    1.5146457228439115e-002 -2.2479866936541719e+000
    1.4047846697658182e-002 -2.1284160109654247e+000
    1.2682727320918139e-002 -1.9458927346665829e+000
    1.3283837238819140e-002 -1.9682218842183690e+000
    1.3903124735233278e-002 -1.8482880228375005e+000
    1.5075607289547514e-002 -1.8182259220286412e+000
    1.5162006317751598e-002 -1.6923687051814165e+000
    1.7055437473571671e-002 -1.7565070188555778e+000
    2.0115809977332994e-002 -1.9416546106692369e+000
    1.9782368675917213e-002 -1.9193607703419675e+000
    1.9215095410586403e-002 -1.8531129514423863e+000
    1.9903548042157649e-002 -1.8458171339096201e+000
    1.9936119157175785e-002 -1.7880800205971710e+000
    2.0300531897821009e-002 -1.8038472629206668e+000
    2.0065621442535694e-002 -1.8548756012058294e+000
    1.8717631834594257e-002 -1.6861466677663659e+000
    1.8751620600060637e-002 -1.7512674238985202e+000
    1.8094865806189440e-002 -1.6953165939846535e+000
    1.9928987714071825e-002 -1.8581408544834588e+000
    1.9017772359077107e-002 -1.8094051987350503e+000
    1.8334059464263378e-002 -1.7576688198299164e+000
    1.8268520462754012e-002 -1.7790059212539027e+000
    1.6219409346687474e-002 -1.6068800545611091e+000
    1.5726654797912815e-002 -1.5399016156289633e+000
    1.6009082085328901e-002 -1.5067595591263130e+000
    1.5620911186094561e-002 -1.4493974021954883e+000
    1.8651591220650396e-002 -1.8211946570449351e+000
    1.8247034744554465e-002 -1.7510636556649231e+000
    1.8243864827496018e-002 -1.7774736874788979e+000
    1.7421338469935207e-002 -1.8072564693692310e+000
    1.7176943305570205e-002 -1.7759732453437764e+000
    1.6274251577093529e-002 -1.7622689564909850e+000
    1.6133284545606707e-002 -1.7108964134793399e+000
    1.6355278142648255e-002 -1.7322965432754944e+000
    1.6118472019814308e-002 -1.7607511815930488e+000
    1.6045979061346912e-002 -1.7474835292047803e+000
    1.6212894509489397e-002 -1.7120044559425114e+000
    1.6398696531129943e-002 -1.7423615064325564e+000
    1.6085640170757327e-002 -1.7117802081714255e+000
    1.6096760127045945e-002 -1.6884351604690693e+000
    1.4555503305422423e-002 -1.6316026086173516e+000
    1.4611770358449030e-002 -1.6419107192071476e+000
    1.5039308232612366e-002 -1.6666776230641489e+000
    1.4635446139235999e-002 -1.6708801008961101e+000
    1.4683414891442904e-002 -1.7062477708973118e+000
    1.4759323243751581e-002 -1.7684831958138054e+000
    1.4359017156021113e-002 -1.9692366385400382e+000
    1.4035620233255016e-002 -1.9574677503878872e+000
    1.3451647238657053e-002 -2.0161456992225273e+000
    1.3032362305442285e-002 -2.0588029499192753e+000
    1.2915504696082086e-002 -2.0637131432239730e+000
    1.3201020332822862e-002 -2.0687884721580971e+000
    1.4091858304422450e-002 -2.1112623423947205e+000
    1.5928640321463860e-002 -2.2040307911473147e+000
    1.6155250239938492e-002 -2.2044223601211312e+000
    1.6083453377967457e-002 -2.1990293100709080e+000
    1.5908998748283415e-002 -2.2225250037036415e+000
    1.5624581838168202e-002 -2.1809312149109785e+000
    1.4485012498640759e-002 -2.0123820935611625e+000
    1.3985375059737818e-002 -1.9802625114347812e+000
    1.4270282184974861e-002 -2.1040172007251625e+000
    1.4221555483745900e-002 -2.1301858463867962e+000
    1.4673305915350775e-002 -2.1213407980478554e+000
    1.5232954211089292e-002 -2.2528451210043126e+000
    1.4046135582568339e-002 -2.1411995968427093e+000
    1.3122882600204257e-002 -2.0132689055813362e+000
    1.2832681457593715e-002 -1.9878434657882074e+000
    1.2845290456331922e-002 -1.9180771213544203e+000
    1.3762098225517088e-002 -1.8449403347327133e+000
    1.4687894397445221e-002 -1.7817814751186525e+000
    1.5641095654486910e-002 -1.7089759037723911e+000
    1.7963781430841562e-002 -1.8188328698727081e+000
    2.0043285241220010e-002 -1.9647191747167327e+000
    1.9795948679268635e-002 -1.9473086182951993e+000
    1.8987658530437986e-002 -1.8347955272805372e+000
    2.0335459770223545e-002 -1.9272689908422576e+000
    1.9056182884181649e-002 -1.7304828933397336e+000
    1.9760190955208243e-002 -1.7664199271745082e+000
    1.8697633894038151e-002 -1.7506772687691674e+000
    1.8004098419737029e-002 -1.6520903645158693e+000
    1.7761089070877298e-002 -1.6610847112001434e+000
    1.7298084009271655e-002 -1.6361104458769440e+000
    1.8773134588120095e-002 -1.7293632790818250e+000
    1.8613269404147641e-002 -1.7762377088529464e+000
    1.7535061031927281e-002 -1.7004834186438054e+000
    1.6873830300492897e-002 -1.6337483551655800e+000
    1.5992350160954825e-002 -1.5190828801697447e+000
    1.6518889755467260e-002 -1.5207211247503372e+000
    1.6014944667470273e-002 -1.4728029470977124e+000
    1.5836803747865502e-002 -1.4635846130319035e+000
    1.8943352339891455e-002 -1.8196894051260017e+000
    1.8365900658994311e-002 -1.7377640290200809e+000
    1.8212125696169052e-002 -1.7546515864178114e+000
    1.7656390711507191e-002 -1.7858178033924414e+000
    1.6870617376853657e-002 -1.6944928429585036e+000
    1.6244510011434826e-002 -1.7252056406191676e+000
    1.5747356542125193e-002 -1.6551596536955158e+000
    1.6429035718472474e-002 -1.7133137249264152e+000
    1.5943618357047391e-002 -1.6998934048299577e+000
    1.5530387800354815e-002 -1.6623061513451209e+000
    1.5775401747629283e-002 -1.6843997413629408e+000
    1.5958408902273211e-002 -1.6883616656488338e+000
    1.5609560846879334e-002 -1.6516402000840895e+000
    1.6055845052314915e-002 -1.6684698983530584e+000
    1.4299113161129983e-002 -1.5894145188746505e+000
    1.4413658146814855e-002 -1.6157024417905794e+000
    1.4771286770056426e-002 -1.6441848964288999e+000
    1.4366805242299073e-002 -1.6410654321411859e+000
    1.4555182745753651e-002 -1.6747123956870125e+000
    1.4403122159273817e-002 -1.6997398805343018e+000
    1.4583852913448261e-002 -1.9886125151266236e+000
    1.4318634205602190e-002 -1.9788693392004266e+000
    1.3939990497914612e-002 -2.0458595578368017e+000
    1.3366757327287740e-002 -2.0759847153785218e+000
    1.3201699352633317e-002 -2.1083428192330471e+000
    1.3173639284315400e-002 -2.0657521030119339e+000
    1.3341683995361600e-002 -2.0516015734295925e+000
    1.4004162383338795e-002 -2.0834525869593441e+000
    1.4217663455363939e-002 -2.1202936917302866e+000
    1.4482372242696107e-002 -2.1270122185493081e+000
    1.4618094045777415e-002 -2.1015250440096196e+000
    1.4462116257221836e-002 -2.0883984547631056e+000
    1.3505086354936890e-002 -1.9772089522977840e+000
    1.3098123338689840e-002 -1.9438238754774706e+000
    1.3372726680399160e-002 -2.0551015323484849e+000
    1.3491072113846951e-002 -2.0650976814267157e+000
    1.3482673817878859e-002 -2.0501689604257933e+000
    1.3784786343852584e-002 -2.1185903773706771e+000
    1.3069958661594456e-002 -2.0549398100437855e+000
    1.2612229323314426e-002 -1.9356769099544000e+000
    1.2927947928757426e-002 -1.9896727478925713e+000
    1.2927746595359953e-002 -1.9202320746465014e+000
    1.4238108864948515e-002 -1.9385863224811448e+000
    1.5310357788954426e-002 -1.8855434681753991e+000
    1.5745554876182236e-002 -1.7378218959176848e+000
    1.7934956586653169e-002 -1.8524248017357487e+000
    1.9745741586280868e-002 -1.9844470294212273e+000
    1.8600091852415082e-002 -1.8737378244659100e+000
    1.8353630648785896e-002 -1.7796466861233466e+000
    1.9271837079130525e-002 -1.8182060577632073e+000
    1.8614101586482204e-002 -1.7211396074072294e+000
    1.9244839266158491e-002 -1.7320355339542641e+000
    1.8271620257347181e-002 -1.7099191290834068e+000
    1.7530939659731477e-002 -1.5763236577375219e+000
    1.7348265748290230e-002 -1.5970730837086708e+000
    1.7369839940462848e-002 -1.6145679792277847e+000
    1.9121361589461143e-002 -1.7655390534269122e+000
    1.7923240381434623e-002 -1.7086822496967673e+000
    1.6599881563655286e-002 -1.6066313941966368e+000
    1.7184574467756269e-002 -1.6112584346196235e+000
    1.6355398120471640e-002 -1.5054754555653180e+000
    1.6205914887720819e-002 -1.4687575004787927e+000
    1.6189640941602908e-002 -1.4807739446944659e+000
    1.6175152285709499e-002 -1.4823371701832349e+000
    1.8931416842126802e-002 -1.8115562925835147e+000
    1.9731631435049031e-002 -1.7908804531049263e+000
    1.9630918353005691e-002 -1.8518499646335367e+000
    1.8554837605718005e-002 -1.7978312294397480e+000
    1.7776677798691329e-002 -1.7637003901701611e+000
    1.6735431073981170e-002 -1.7386917497932579e+000
    1.6934808257074604e-002 -1.7211006915553082e+000
    1.7327489469321763e-002 -1.7341929043879531e+000
    1.6538152120351094e-002 -1.7052016132662005e+000
    1.6486245560609018e-002 -1.7143732734752355e+000
    1.5958616260447114e-002 -1.6940831094572251e+000
    1.6111147420261922e-002 -1.6813133129287621e+000
    1.5754173439482894e-002 -1.6624403972330519e+000
    1.5987490133592949e-002 -1.6697410826429875e+000
    1.4686124458988216e-002 -1.5951928519501009e+000
    1.4677304295094172e-002 -1.6129309041430273e+000
    1.4902437760094214e-002 -1.6522190816637787e+000
    1.4628628502064632e-002 -1.6624391390560593e+000
    1.4821914911065036e-002 -1.6958740977410247e+000
    1.4806281379377808e-002 -1.7302197383330067e+000
    1.4878411295916938e-002 -2.0351541165486382e+000
    1.4400575094041371e-002 -2.0054515172630469e+000
    1.4059147255779805e-002 -2.0715483998188886e+000
    1.3673650938332787e-002 -2.1127418515312053e+000
    1.3208807222166321e-002 -2.0849473209369438e+000
    1.3352255371362058e-002 -2.0996421571466835e+000
    1.3267135397492134e-002 -2.0633554384861577e+000
    1.2925817180848441e-002 -2.0102723291738576e+000
    1.3380915633410170e-002 -2.0864670591238856e+000
    1.3530732104053972e-002 -2.0619869245713676e+000
    1.3308019529557971e-002 -1.9683194599431932e+000
    1.3105962346114794e-002 -1.9491998522620491e+000
    1.2386943176945225e-002 -1.9002160687870973e+000
    1.2425013214526283e-002 -1.9187770407004157e+000
    1.2877989465795339e-002 -2.0388616893525264e+000
    1.2915372946353997e-002 -2.0417052066027943e+000
    1.2791163174164427e-002 -1.9951169036655039e+000
    1.3072499464691368e-002 -2.0383761665300897e+000
    1.3261162331790116e-002 -2.0624264845536437e+000
    1.3097891498617663e-002 -1.9918150714683576e+000
    1.3167601295137426e-002 -2.0039835113932960e+000
    1.3381912652591721e-002 -2.0050565791133264e+000
    1.4554029168431792e-002 -2.0176389245998596e+000
    1.5799537494297515e-002 -1.9685471358966404e+000
    1.6401427146361433e-002 -1.8246587700327095e+000
    1.7270926798581342e-002 -1.8533349305049074e+000
    1.8085606763118874e-002 -1.8798265791522726e+000
    1.8051073720863127e-002 -1.8003797099213248e+000
    1.7836483873532535e-002 -1.7377831431070270e+000
    1.8525052640405975e-002 -1.7457656750173061e+000
    1.8439082773452367e-002 -1.7330542678143623e+000
    1.8440810267891794e-002 -1.7138976876360861e+000
    1.7365695896386892e-002 -1.6507747825315398e+000
    1.7514580267253697e-002 -1.6071712464284702e+000
    1.7376387431873322e-002 -1.6315186627998199e+000
    1.6968082126937949e-002 -1.5945957179767640e+000
    1.7985819366985872e-002 -1.6594059535016727e+000
    1.7551228136121783e-002 -1.6316373870830356e+000
    1.7689731368043124e-002 -1.6297717983010207e+000
    1.7891645713184079e-002 -1.5806417004468936e+000
    1.6238316840990679e-002 -1.4303250750772623e+000
    1.6709622118692102e-002 -1.4720381390276376e+000
    1.6769722766309659e-002 -1.4459893094807246e+000
    1.6743063239464583e-002 -1.4510654807535972e+000
    1.9055941629347695e-002 -1.8271018319376944e+000
    1.9930428200778290e-002 -1.8070254902038985e+000
    1.9424951105714395e-002 -1.7942642336814048e+000
    1.9014456919700121e-002 -1.8185969868198901e+000
    1.8403217491682507e-002 -1.7673661369690807e+000
    1.7644314767204454e-002 -1.7451067510230309e+000
    1.7062699371475316e-002 -1.6534568200453461e+000
    1.6927602153526820e-002 -1.6784523611514865e+000
    1.7127599616451730e-002 -1.7376357610881148e+000
    1.6248434499835124e-002 -1.7053118875065054e+000
    1.6266854174369655e-002 -1.6781971223224694e+000
    1.6105673840514392e-002 -1.6692380530418844e+000
    1.5919380754832450e-002 -1.6696398148818319e+000
    1.5468215748896732e-002 -1.6517844674714726e+000
    1.4741855142991884e-002 -1.6151106295351703e+000
    1.4744443874954835e-002 -1.6094262605888199e+000
    1.5077073729461769e-002 -1.6767859854837124e+000
    1.5014923948910708e-002 -1.6797052422370706e+000
    1.5471347297510559e-002 -1.7543402739141438e+000
    1.5002619946456207e-002 -1.7074410320014446e+000
    1.4596937408709777e-002 -1.9603339393768451e+000
    1.4343597471492950e-002 -1.9833438646594119e+000
    1.4328300312475445e-002 -2.0605460449369448e+000
    1.4083654984098110e-002 -2.1279732030734908e+000
    1.3690045744755545e-002 -2.1100597887779768e+000
    1.3935873165784048e-002 -2.1360043691603523e+000
    1.3584297247184060e-002 -2.0664303598156897e+000
    1.3318786417748616e-002 -2.0480805256911769e+000
    1.3568441842671161e-002 -2.0575572879993480e+000
    1.3598895866284880e-002 -2.0534332758090170e+000
    1.3259302605947702e-002 -2.0084686471199831e+000
    1.3130264059977276e-002 -1.9592229729494666e+000
    1.2628747666633954e-002 -1.9627178665226936e+000
    1.2850176695551612e-002 -2.0034037381540943e+000
    1.2960611213560834e-002 -2.0385189923043541e+000
    1.2767437852894373e-002 -2.0050957161355067e+000
    1.3367681445015231e-002 -2.0121543356044351e+000
    1.3192259378510833e-002 -2.0042811212923244e+000
    1.3635435847697119e-002 -2.0923900961525699e+000
    1.3503824931713286e-002 -2.0680143323995201e+000
    1.3612662307305975e-002 -2.0521088428263758e+000
    1.3758021875480399e-002 -2.0471608978765414e+000
    1.5272586917036238e-002 -2.1101624257038401e+000
    1.6455252329760587e-002 -2.0216452862277294e+000
    1.6836985007590365e-002 -1.8656982910791799e+000
    1.7803550051033821e-002 -1.8572917749667781e+000
    1.8452168360186136e-002 -1.8493905407667510e+000
    1.8205595472241334e-002 -1.8125404158851699e+000
    1.8374609256604685e-002 -1.7648374700272216e+000
    1.8640837773717171e-002 -1.7340417424264996e+000
    1.8547711235954528e-002 -1.7304572970973291e+000
    1.8585121051400394e-002 -1.7060698622303385e+000
    1.7535614665260976e-002 -1.6756949871196412e+000
    1.7452770231026739e-002 -1.6301718480075689e+000
    1.6677508575435242e-002 -1.5811866463662652e+000
    1.6744398104259810e-002 -1.6068642037909324e+000
    1.7143707209056509e-002 -1.6198762395033515e+000
    1.7169627520013386e-002 -1.5957533577231489e+000
    1.6542841263976395e-002 -1.5057924321948037e+000
    1.6580243073475068e-002 -1.4884715835366129e+000
    1.6196369527908323e-002 -1.4306793082985685e+000
    1.6561495203928248e-002 -1.4331608171113623e+000
    1.6494107998434249e-002 -1.4033736888667807e+000
    1.6613057128828480e-002 -1.4378205396021793e+000
    1.9547741991095480e-002 -1.8921748824952067e+000
    2.0560515366882207e-002 -1.8871615890316884e+000
    2.0096842292440669e-002 -1.8859929498965453e+000
    1.9478367831095727e-002 -1.9139815247364778e+000
    1.9352697615635579e-002 -1.8486434008078556e+000
    1.7628289120545548e-002 -1.7294610790763794e+000
    1.7431403867459786e-002 -1.7035046946187784e+000
    1.7128491570729869e-002 -1.6759413359503428e+000
    1.7155484754491145e-002 -1.7508806047649117e+000
    1.6363061396624863e-002 -1.7140306812964543e+000
    1.6279183795986234e-002 -1.6769497307936772e+000
    1.6163890733253729e-002 -1.6737323999742968e+000
    1.5943656266506036e-002 -1.6835741795703398e+000
    1.5719010920567877e-002 -1.6800628576768857e+000
    1.4914898745000855e-002 -1.6498718945065232e+000
    1.4591597807152952e-002 -1.6227941275526532e+000
    1.4672282713914275e-002 -1.6529025157353663e+000
    1.4740473908569768e-002 -1.6551446417336912e+000
    1.5460806722394072e-002 -1.7479914457449583e+000
    1.5225875723880667e-002 -1.7214302589249368e+000
    1.4637447820880362e-002 -1.9528794967691214e+000
    1.4508385059155353e-002 -1.9764220265704131e+000
    1.4679021512828214e-002 -2.0679945307477272e+000
    1.4585163319565482e-002 -2.1414145145262036e+000
    1.4302118984493132e-002 -2.1356128383630639e+000
    1.4250967810929209e-002 -2.1334038121718431e+000
    1.4045527650914279e-002 -2.0956261672489127e+000
    1.3236689784638893e-002 -2.0532627130219616e+000
    1.3064671169573577e-002 -2.0309342396701404e+000
    1.3064592951308169e-002 -1.9719758813051940e+000
    1.3229875498361843e-002 -1.9595965589359292e+000
    1.3403109823900125e-002 -1.9664276841636328e+000
    1.2828060307570199e-002 -1.9428402765822390e+000
    1.2917227736860897e-002 -1.9769509498224247e+000
    1.3047448600648250e-002 -2.0032493405066720e+000
    1.2823815336006371e-002 -1.9861647323981295e+000
    1.3278715040725751e-002 -2.0469771555042588e+000
    1.3409121713240319e-002 -2.0250966435019842e+000
    1.3264268244971780e-002 -2.0474345483845728e+000
    1.3570549655068867e-002 -2.0338053524721662e+000
    1.3918408954787534e-002 -2.0337446608459784e+000
    1.4556112798680163e-002 -2.0976398265240879e+000
    1.6295798231010107e-002 -2.1648191959504977e+000
    1.7013322351936429e-002 -2.0089898143911600e+000
    1.7018032160732298e-002 -1.8371370908752438e+000
    1.7889149059497480e-002 -1.8021188016841390e+000
    1.8530855937316376e-002 -1.7979342367753388e+000
    1.8913668249564315e-002 -1.8366522846630491e+000
    1.9395843203950231e-002 -1.8282891248675943e+000
    1.9016468196301348e-002 -1.7454401165890883e+000
    1.8885291088260259e-002 -1.7423929277859167e+000
    1.9169389471070195e-002 -1.7450990629199261e+000
    1.7483403576207854e-002 -1.6598826609554480e+000
    1.7568007888871973e-002 -1.6267138733291215e+000
    1.7100329421388810e-002 -1.5980664994988352e+000
    1.6821193251681032e-002 -1.6136330383576876e+000
    1.7243537031984408e-002 -1.6098073500574015e+000
    1.6989354352149950e-002 -1.5735378197586500e+000
    1.6500099116645649e-002 -1.5113305071841860e+000
    1.7660169531924293e-002 -1.5513617973341591e+000
    1.6760418738527197e-002 -1.4763135505519371e+000
    1.7004256228560360e-002 -1.4619611724126540e+000
    1.6624374173360261e-002 -1.4059470729470391e+000
    1.6921388469959723e-002 -1.4437570376690634e+000
    1.9181606002224523e-002 -1.8405207664039245e+000
    2.0099791829277364e-002 -1.8496594147656431e+000
    2.0705013523826334e-002 -1.8878535545117370e+000
    2.1044162796296645e-002 -2.0638311085225207e+000
    1.9248545553309016e-002 -1.8735251005220774e+000
    1.8362982992581694e-002 -1.8091910386500725e+000
    1.7837619525707518e-002 -1.7030679594782656e+000
    1.7724054997021541e-002 -1.7287283641737796e+000
    1.7608142213715993e-002 -1.7817762954355469e+000
    1.6987453207146834e-002 -1.7634594281704810e+000
    1.6488999819856527e-002 -1.7272227311299713e+000
    1.6493880012483583e-002 -1.7240031727334029e+000
    1.5447814846884395e-002 -1.6821566952910900e+000
    1.5766958014285636e-002 -1.6842489793117263e+000
    1.4957865618138166e-002 -1.6323661204937210e+000
    1.4496332232458010e-002 -1.6318728284538446e+000
    1.4443451767968588e-002 -1.6315942122173086e+000
    1.4448648703406446e-002 -1.6275370718051403e+000
    1.5016668607295546e-002 -1.6895539881851214e+000
    1.4892283032166885e-002 -1.7145627286200706e+000
    1.4793844248452653e-002 -1.9841363012269950e+000
    1.4091591800758774e-002 -1.9401102282830383e+000
    1.5096126984981586e-002 -2.1138172094923022e+000
    1.5227552843467921e-002 -2.1856976742106276e+000
    1.4991524965459264e-002 -2.1857286458569001e+000
    1.4603148282425366e-002 -2.1195426649920246e+000
    1.4403866446141849e-002 -2.1420607100619522e+000
    1.3743055240164491e-002 -2.0706203228514499e+000
    1.3364369049357776e-002 -2.0180197264530242e+000
    1.3566305642020746e-002 -2.0234790879628326e+000
    1.3558557006857737e-002 -1.9992415129397612e+000
    1.3927114566977365e-002 -1.9980435434124315e+000
    1.3225946340279272e-002 -1.9838919510418909e+000
    1.3167546289445531e-002 -2.0212183554298888e+000
    1.3285708804357598e-002 -2.0499532358723669e+000
    1.3410025937580942e-002 -2.0849397469619895e+000
    1.3955698367474227e-002 -2.1430303957386911e+000
    1.3780660875882421e-002 -2.0349442560053039e+000
    1.3580760185389514e-002 -2.0141560760664587e+000
    1.4395127139998814e-002 -2.1022026741233981e+000
    1.4748422051850625e-002 -2.0879551790548532e+000
    1.5086496194902169e-002 -2.1086970455279328e+000
    1.6856907883984609e-002 -2.1496571101576563e+000
    1.7106595181804740e-002 -1.9772372930969311e+000
    1.7082939277282695e-002 -1.8111983000414247e+000
    1.7786111682845180e-002 -1.7476972122643346e+000
    1.8249253162543309e-002 -1.7573596289501527e+000
    1.8514248872123780e-002 -1.7930168401753210e+000
    1.8693573389795746e-002 -1.7202538369419180e+000
    1.8668671005906200e-002 -1.7330749583816256e+000
    1.8706949379131518e-002 -1.7083453415156891e+000
    1.8431257816085900e-002 -1.6671511534121508e+000
    1.7057665397109501e-002 -1.6397696200197527e+000
    1.6930435071405334e-002 -1.5908562383166940e+000
    1.7061481900189662e-002 -1.5881396068759877e+000
    1.6214569003515651e-002 -1.5500355845027463e+000
    1.6790317129685785e-002 -1.5601002999666376e+000
    1.7287663315413867e-002 -1.5814095823290495e+000
    1.7128141181652803e-002 -1.4997318856078139e+000
    1.7133571422301763e-002 -1.5061225164556691e+000
    1.6527721284425430e-002 -1.4481431982544186e+000
    1.6826118253416417e-002 -1.4478474135201651e+000
    1.7174959467964990e-002 -1.4247037806283338e+000
    1.7365312936454519e-002 -1.4212681718824385e+000
    1.8468935546080603e-002 -1.7879688554848507e+000
    2.0737822921604830e-002 -1.9103484972306926e+000
    2.0638591390245327e-002 -1.8795860016116279e+000
    2.0614855731309428e-002 -1.9520305057956571e+000
    1.9025909450746864e-002 -1.8296582921801567e+000
    1.8216270623774962e-002 -1.8170729947215525e+000
    1.7943352719710370e-002 -1.7862180409787871e+000
    1.8091269741369174e-002 -1.7906049598778968e+000
    1.7990793639338063e-002 -1.8290640199993697e+000
    1.6818297497364510e-002 -1.7763325642454517e+000
    1.5680188113209145e-002 -1.6884202557616275e+000
    1.5356644174966251e-002 -1.6722288603382891e+000
    1.4846175130836111e-002 -1.6783247505049965e+000
    1.5205333030402118e-002 -1.7042644104909039e+000
    1.4991950918995743e-002 -1.6614294179158495e+000
    1.4921075646115901e-002 -1.6747131094235799e+000
    1.4746581287521605e-002 -1.6366949683757610e+000
    1.4929656416362862e-002 -1.6746097947020344e+000
    1.4689435869638483e-002 -1.6637534864731016e+000
    1.4901162124830662e-002 -1.7237451472259471e+000
    1.5191321040871935e-002 -1.9972970187546388e+000
    1.4787195426165313e-002 -2.0316550287306412e+000
    1.5261685590523960e-002 -2.1775154976479718e+000
    1.5427211108588676e-002 -2.2297829770163702e+000
    1.5229136408816912e-002 -2.1822989875348711e+000
    1.4936528159507148e-002 -2.1361013426209450e+000
    1.4834818152701875e-002 -2.1604086959762148e+000
    1.4343152494954766e-002 -2.0884654543546635e+000
    1.4133114821257122e-002 -2.0609109933997440e+000
    1.4334281687794232e-002 -2.0957061119976306e+000
    1.4089316031292393e-002 -2.0216491205377052e+000
    1.4257267223205751e-002 -2.0214768170045296e+000
    1.3610396887401210e-002 -2.0188755382978463e+000
    1.3694140384785451e-002 -2.0668370452179752e+000
    1.3491276917253199e-002 -2.0354160996708308e+000
    1.3829867477112612e-002 -2.0983531070928603e+000
    1.4102286014481434e-002 -2.1222261608221404e+000
    1.4301080700090930e-002 -2.0780832264917843e+000
    1.3960249137419565e-002 -2.0051238790829409e+000
    1.4941137759203660e-002 -2.1406737253811432e+000
    1.5300290853975287e-002 -2.1181795516771267e+000
    1.5337535356061483e-002 -2.1352040292117023e+000
    1.7100400644941553e-002 -2.1133245130373601e+000
    1.6636249435104295e-002 -1.9206946074004934e+000
    1.7278589289688409e-002 -1.7899795714151017e+000
    1.7510240481196929e-002 -1.7362237258082049e+000
    1.7413649589489658e-002 -1.6930628118733577e+000
    1.7258846306626507e-002 -1.6969144243622418e+000
    1.7750691729221304e-002 -1.6776516861700943e+000
    1.8483425743555194e-002 -1.7680276886841189e+000
    1.6833369881353547e-002 -1.6091900017532021e+000
    1.7138004084560073e-002 -1.6068919067856562e+000
    1.7091087482327745e-002 -1.6771646918669953e+000
    1.6554286637259882e-002 -1.5864524694040718e+000
    1.6506225831902754e-002 -1.5885277336321650e+000
    1.6806445499430459e-002 -1.5986130897672544e+000
    1.7548283456616128e-002 -1.5954314375973497e+000
    1.7224658312944091e-002 -1.5754410692660648e+000
    1.6569997117476060e-002 -1.4820284326618767e+000
    1.7520155590327626e-002 -1.5620053001900427e+000
    1.6765673891067798e-002 -1.4979331256245694e+000
    1.7020415960173972e-002 -1.5245429724327257e+000
    1.6655902519917533e-002 -1.4183294133925013e+000
    1.7180923465928026e-002 -1.4640601210608666e+000
    1.8064950996423593e-002 -1.7581068380447959e+000
    2.0581661769998611e-002 -1.8854272300016586e+000
    1.9878408706628856e-002 -1.7982860447818174e+000
    1.9996393832710579e-002 -1.8646637249002616e+000
    1.8991606484070979e-002 -1.7935763599777985e+000
    1.8266179700879914e-002 -1.7842143386395202e+000
    1.7824601901597077e-002 -1.7508427415485415e+000
    1.8208854144343038e-002 -1.7844677061456178e+000
    1.8029798260274784e-002 -1.8300245234178907e+000
    1.6164626066058882e-002 -1.7005571493543135e+000
    1.5646817932966465e-002 -1.6630332203038645e+000
    1.5611660255802625e-002 -1.6663588792086470e+000
    1.5199197316085721e-002 -1.6777018751755572e+000
    1.5747940999045706e-002 -1.7485838773583251e+000
    1.5882236738747106e-002 -1.7763525495301080e+000
    1.5182412356765549e-002 -1.7116362502210685e+000
    1.5161655849413438e-002 -1.7242773610648403e+000
    1.5462472569685684e-002 -1.7757913438066404e+000
    1.5246431583960020e-002 -1.7658634866707981e+000
    1.5298695139883293e-002 -1.7945005144436916e+000
    1.5793882818869859e-002 -1.9862687868873952e+000
    1.5660014038569689e-002 -2.0715961428165044e+000
    1.5518959114089815e-002 -2.1709915303532070e+000
    1.5805978602222451e-002 -2.2664644317115408e+000
    1.5461359849707810e-002 -2.1846533340021663e+000
    1.5027728403361517e-002 -2.1033452718847783e+000
    1.5054152172204184e-002 -2.1548943537926561e+000
    1.5256807219876673e-002 -2.1641054526765542e+000
    1.5128819210666214e-002 -2.1382064484408252e+000
    1.5194117357059514e-002 -2.1501484883734099e+000
    1.4860326072378905e-002 -2.0777920204772649e+000
    1.4792601799653519e-002 -2.0508885780805342e+000
    1.4403467714247295e-002 -2.0495791617666415e+000
    1.4286570487444517e-002 -2.1048880518168258e+000
    1.4038243327655268e-002 -2.0805010855473864e+000
    1.4139240141303007e-002 -2.0981622423969282e+000
    1.4985887606793230e-002 -2.1947189206996467e+000
    1.5068373388177184e-002 -2.1373770109539425e+000
    1.4718348424674319e-002 -2.0631970559588106e+000
    1.5394896334539408e-002 -2.1893741858619973e+000
    1.5216700160327362e-002 -2.1158459270550427e+000
    1.5745863317798491e-002 -2.1436868202659944e+000
    1.7150377886091243e-002 -2.0570244905043960e+000
    1.7546399761874970e-002 -1.9649878876185458e+000
    1.7303667266274622e-002 -1.8230649441253621e+000
    1.8026544684746151e-002 -1.8541588818596042e+000
    1.8235326972284818e-002 -1.8930006095038525e+000
    1.7852433816652222e-002 -1.8564405879578234e+000
    1.8319020429034719e-002 -1.8207797805001293e+000
    1.8771788702042557e-002 -1.9024313954820036e+000
    1.6911152617006816e-002 -1.6635339770753252e+000
    1.7166864999553777e-002 -1.6666164770400125e+000
    1.7182722073576108e-002 -1.7109081836117925e+000
    1.6508014873444457e-002 -1.6246637971281588e+000
    1.6707178811837916e-002 -1.6245742444653821e+000
    1.7148787749191929e-002 -1.6434254926308931e+000
    1.8081939130142295e-002 -1.6628926164327287e+000
    1.7534611744870199e-002 -1.6303014015170982e+000
    1.7079163432205426e-002 -1.5753495032467577e+000
    1.7687457869312334e-002 -1.5817640894556459e+000
    1.6621691131180172e-002 -1.5246444067350384e+000
    1.7159986011832981e-002 -1.5617630126245612e+000
    1.6732329409858280e-002 -1.4541191034757790e+000
    1.7015721977064375e-002 -1.4560596377516515e+000
    1.8204866905037833e-002 -1.7812595368155471e+000
    1.9752955480270305e-002 -1.8337327004184265e+000
    1.9319777039467637e-002 -1.7971992593619062e+000
    1.9100254815516648e-002 -1.7942870327290699e+000
    1.9369833932920178e-002 -1.8041616748948508e+000
    1.8534341617268621e-002 -1.8106286584679321e+000
    1.7286147788862914e-002 -1.7216180047812757e+000
    1.7703614906748814e-002 -1.7575052941354565e+000
    1.6520722219249849e-002 -1.6864903932150888e+000
    1.6347300430710188e-002 -1.6999246340744465e+000
    1.7347387849597440e-002 -1.7603468336901023e+000
    1.6671827530491817e-002 -1.7596717010159577e+000
    1.5771223773597510e-002 -1.7710708792422061e+000
    1.6913875789709786e-002 -1.9110666085730426e+000
    1.6866487859088144e-002 -1.9605284220968648e+000
    1.6330666083016164e-002 -1.9297403754764102e+000
    1.6290340209252276e-002 -1.9794702680456902e+000
    1.6117049317132863e-002 -1.9691580612111259e+000
    1.5999175755306166e-002 -1.9378049301724396e+000
    1.6311223584422149e-002 -2.0363785920218462e+000
    1.6914798552513842e-002 -2.1280427512257889e+000
    1.6637882332665842e-002 -2.0424981263625019e+000
    1.6415482798817570e-002 -2.1027451775628223e+000
    1.6377660093709678e-002 -2.2228774134331433e+000
    1.5963017327368312e-002 -2.2462245810653982e+000
    1.6127378177442753e-002 -2.2996873310643964e+000
    1.6113253331554989e-002 -2.3247204419656535e+000
    1.5802968341228144e-002 -2.2406351540955618e+000
    1.5662739387256486e-002 -2.2237360706240579e+000
    1.5817580304367654e-002 -2.2221817282362224e+000
    1.5576853139306700e-002 -2.1900313758953827e+000
    1.5293875249055046e-002 -2.1353162966775900e+000
    1.4895435887450353e-002 -2.1562916713261462e+000
    1.5086083542265882e-002 -2.2095724502440137e+000
    1.4475707733480720e-002 -2.1556741433108368e+000
    1.4986806330789184e-002 -2.2658623857264604e+000
    1.5508993429165783e-002 -2.2862841146828559e+000
    1.5403790083175299e-002 -2.1926561669586553e+000
    1.5572261708928802e-002 -2.1321021656475017e+000
    1.5811157499065233e-002 -2.1337533501119466e+000
    1.5690787706422283e-002 -2.0941597735321453e+000
    1.7225398190114729e-002 -2.1802432566345216e+000
    1.7305867559354222e-002 -2.0935979302161618e+000
    1.7914494761440358e-002 -2.1299054664583910e+000
    1.7393175812837513e-002 -2.0333450771674331e+000
    1.7720823737306213e-002 -2.0098367588728130e+000
    1.7641477448278067e-002 -1.9953771099534514e+000
    1.7917484224188651e-002 -2.0564579214928904e+000
    1.8531164373141510e-002 -2.0393105174442874e+000
    1.8837663146089926e-002 -2.0773008776456070e+000
    1.7457951515437026e-002 -1.8256029298999861e+000
    1.8043929545366166e-002 -1.7878526857866974e+000
    1.7908992456690469e-002 -1.7902596387955936e+000
    1.7122385274747055e-002 -1.6625020750099642e+000
    1.7411542588918767e-002 -1.6845667454778908e+000
    1.8091488348424493e-002 -1.7413057535358576e+000
    1.8677201273304144e-002 -1.7518770099090877e+000
    1.7164680024688989e-002 -1.6304402609165887e+000
    1.7038683968408522e-002 -1.6138067815792643e+000
    1.8564696942721341e-002 -1.6487218951512048e+000
    1.6943881581409730e-002 -1.5197048075516775e+000
    1.6867017271923381e-002 -1.5226499044404165e+000
    1.7210250279024925e-002 -1.4849987383615793e+000
    1.7178975970794031e-002 -1.4716656081646888e+000
    1.8731129891690811e-002 -1.8260621747982864e+000
    1.9809203049725443e-002 -1.7917895806168322e+000
    1.9203731624100016e-002 -1.7495971204671124e+000
    1.9351673039172509e-002 -1.8395608240213390e+000
    1.9152276887540995e-002 -1.7989460076511721e+000
    1.9580586085423984e-002 -1.8613211891917918e+000
    1.7631188434258777e-002 -1.7505251374014072e+000
    1.8161495678012354e-002 -1.7770158687807565e+000
    1.6986627908678498e-002 -1.6832939370457123e+000
    1.6478352185472604e-002 -1.6596054701083123e+000
    1.7882731457596224e-002 -1.7584685933302953e+000
    1.7478818628588438e-002 -1.8608699404222191e+000
    1.6624792223865887e-002 -1.9344133237626808e+000
    1.7873414966436948e-002 -2.1524698309580499e+000
    1.7169830889048464e-002 -2.0951281739612706e+000
    1.6235909489310859e-002 -2.1344422439340454e+000
    1.5812722891810339e-002 -2.1245522685353748e+000
    1.6002703487771070e-002 -2.1249304131261728e+000
    1.6191154240113297e-002 -2.1559292878055620e+000
    1.6172419215426569e-002 -2.2579777685538431e+000
    1.6039609202521343e-002 -2.1987630948456345e+000
    1.6399564078791586e-002 -2.1118343409558165e+000
    1.6271177664476309e-002 -2.0662458588924855e+000
    1.5866933213794704e-002 -1.9701442073795092e+000
    1.5852845034224336e-002 -1.9891546031038632e+000
    1.6232600825196335e-002 -2.1191273886797974e+000
    1.6346583219586291e-002 -2.2464875796060015e+000
    1.6462100511197095e-002 -2.2925434735712336e+000
    1.6593708609505393e-002 -2.2984261865666098e+000
    1.6611087563280842e-002 -2.3004378764719768e+000
    1.6168362639913465e-002 -2.2175679282671790e+000
    1.5671738888747625e-002 -2.1712821093719623e+000
    1.5018698089423511e-002 -2.1653744352500968e+000
    1.4760309162612397e-002 -2.1384876489165818e+000
    1.4561938423984438e-002 -2.1910516635802302e+000
    1.5122426884529413e-002 -2.2608028192371474e+000
    1.5206800029647362e-002 -2.1794603042491025e+000
    1.5845513618105943e-002 -2.1261283808294293e+000
    1.7070530639630658e-002 -2.1582028022961617e+000
    1.8041173864690986e-002 -2.1666590707976510e+000
    1.7071961947795311e-002 -1.9872576657802683e+000
    1.6396879065196400e-002 -1.9102364110953807e+000
    1.6262841958066494e-002 -2.0357593236793949e+000
    1.5952960583938806e-002 -2.0414092061518834e+000
    1.5740151099399687e-002 -2.0555887804811261e+000
    1.5629333343178019e-002 -2.0437213981127065e+000
    1.5596500372435271e-002 -2.0498257632343497e+000
    1.6281367920316484e-002 -2.1006841133379766e+000
    1.6761797137034917e-002 -2.0489301547985064e+000
    1.6995987297397399e-002 -1.9846861833353699e+000
    1.5850616349564434e-002 -1.8258400452188746e+000
    1.6827413319645997e-002 -1.8714487527634869e+000
    1.8441595531949698e-002 -1.9209995345780937e+000
    1.8566088562982017e-002 -1.7931747203746797e+000
    1.8404105743736843e-002 -1.7518955896061881e+000
    1.7817482262587222e-002 -1.7085692812516675e+000
    1.8172923081432452e-002 -1.6879184033492378e+000
    1.7195769526055459e-002 -1.6509985860433010e+000
    1.7204697388665070e-002 -1.6127355623612949e+000
    1.8716428865927847e-002 -1.6301118283705731e+000
    1.7034713552584610e-002 -1.4838452269554951e+000
    1.7245804965663671e-002 -1.5092132416975432e+000
    1.7108851733089420e-002 -1.4666766824997253e+000
    1.7967398581337210e-002 -1.4827381781646374e+000
    1.8873897989855889e-002 -1.8056029076962135e+000
    1.9918781440127643e-002 -1.8005155651772522e+000
    1.8959597065715844e-002 -1.7111036351808548e+000
    1.8993580899038843e-002 -1.7826832358097886e+000
    1.8901118813961979e-002 -1.7573540230600364e+000
    1.9791068434117681e-002 -1.8476376030994150e+000
    1.7759159833297119e-002 -1.7323637580242452e+000
    1.7990389686686654e-002 -1.7688408145517271e+000
    1.7463018166479771e-002 -1.7346598045369905e+000
    1.6935085995840881e-002 -1.6987504119161341e+000
    1.7970412966728348e-002 -1.7940462278450466e+000
    1.7440996101371078e-002 -1.9058440858867276e+000
    1.6364106814319653e-002 -1.9773295733969580e+000
    1.7368038737719717e-002 -2.2555706498783858e+000
    1.6936767174903201e-002 -2.2590421360430413e+000
    1.6670388479124061e-002 -2.2979336690449705e+000
    1.6078172897624542e-002 -2.2572606307343599e+000
    1.6409707342391625e-002 -2.2635628449558545e+000
    1.5951080528851927e-002 -2.1782719612673862e+000
    1.5559377837242363e-002 -2.2377719482348213e+000
    1.5487303689082894e-002 -2.2246405513389784e+000
    1.5338070243699905e-002 -2.1283398423876916e+000
    1.5721273754420749e-002 -2.0669731826645568e+000
    1.6074905554816547e-002 -2.0059185717331793e+000
    1.5913335179547999e-002 -1.9245663343931918e+000
    1.5973993341082522e-002 -1.9465451885633418e+000
    1.6392936895130800e-002 -2.0877576060013010e+000
    1.6465552483414084e-002 -2.1381696010604863e+000
    1.6953066870016489e-002 -2.2295301156318112e+000
    1.7019062199695179e-002 -2.2390197186765644e+000
    1.6644630473317466e-002 -2.1622167586290497e+000
    1.6212578334814615e-002 -2.1228827274360236e+000
    1.5251320115857184e-002 -2.0961486992567999e+000
    1.5251567481515583e-002 -2.0765735391201634e+000
    1.5599629798117021e-002 -2.1588773381322661e+000
    1.5412435154017219e-002 -2.1067331004574492e+000
    1.6156436231014714e-002 -2.0620613432465329e+000
    1.7072205940667412e-002 -2.0828091247614244e+000
    1.7652970601037640e-002 -2.0702311117954975e+000
    1.7342325053532056e-002 -1.9823929186192237e+000
    1.6356312456814352e-002 -1.9337445120074206e+000
    1.5944583409257456e-002 -2.0082582436898080e+000
    1.4976608957534953e-002 -2.0006253465773778e+000
    1.4814237903482986e-002 -2.0080346758221101e+000
    1.5002142598653845e-002 -2.0036790215987792e+000
    1.5250302624371688e-002 -2.0135846000822188e+000
    1.5114311333380759e-002 -2.0222588699507895e+000
    1.5840108821016243e-002 -2.1014544369214883e+000
    1.6776786250917160e-002 -2.1825800017859849e+000
    1.6418856592776358e-002 -2.0640848288061706e+000
    1.6119677235397617e-002 -1.9107574551530249e+000
    1.6833527056425067e-002 -1.9312464314615283e+000
    1.8374368795648046e-002 -1.9877129672149261e+000
    1.7223508306491189e-002 -1.8217960869425500e+000
    1.8248179591784017e-002 -1.7718113422689341e+000
    1.7627237613777540e-002 -1.6896966341206756e+000
    1.8161002866539405e-002 -1.6790279554945835e+000
    1.7192242096210099e-002 -1.6492272239435830e+000
    1.6903459156873649e-002 -1.5915411722823056e+000
    1.8487777980098485e-002 -1.5917096470484793e+000
    1.7078190918516360e-002 -1.4790933206215062e+000
    1.7329185155654101e-002 -1.5047509110159645e+000
    1.7259511902140184e-002 -1.4941806018138502e+000
    1.7827809970285931e-002 -1.4671863133879364e+000
    1.8074750727361918e-002 -1.7287208017098290e+000
    1.9173797040544810e-002 -1.7566850240956293e+000
    1.9007850705249248e-002 -1.7781391766886738e+000
    1.9276585735252059e-002 -1.8326525438300350e+000
    1.9348645968576078e-002 -1.8291380671007458e+000
    1.9575902160297882e-002 -1.8426983140651827e+000
    1.8684043064166853e-002 -1.8079035955422402e+000
    1.8381325314335142e-002 -1.8217206338314293e+000
    1.8006658412104044e-002 -1.7880183073257123e+000
    1.8026042024107968e-002 -1.8126902021147620e+000
    1.7189049722734110e-002 -1.8171281135461772e+000
    1.7327191604973469e-002 -1.9647797623496701e+000
    1.5961554703211749e-002 -1.9851233569577755e+000
    1.5994489270090204e-002 -2.1638259055393463e+000
    1.5805022830736551e-002 -2.1688630734511931e+000
    1.5679643946506661e-002 -2.2046699363355975e+000
    1.5655326676132418e-002 -2.2096375365741183e+000
    1.5878512024650220e-002 -2.2668466214238743e+000
    1.5772498170948911e-002 -2.2162237608536905e+000
    1.5264038578686388e-002 -2.2852446329233338e+000
    1.4823923456379024e-002 -2.2514716125771854e+000
    1.3963410471442714e-002 -2.0817117777842515e+000
    1.3933706312223102e-002 -2.0469278082480127e+000
    1.4479744186301121e-002 -2.0637083023618694e+000
    1.5575333188874064e-002 -2.0552022983985729e+000
    1.5736639762513622e-002 -1.9402902145280190e+000
    1.6089740156098934e-002 -2.0271157151427981e+000
    1.6112217019230976e-002 -2.0433743798317572e+000
    1.6972723271192685e-002 -2.1371487385643455e+000
    1.7288649353814089e-002 -2.1616986209893976e+000
    1.7201273019320087e-002 -2.1345960708737213e+000
    1.6917209215552835e-002 -2.0530241755160192e+000
    1.6410767050753082e-002 -2.0937403628919138e+000
    1.6497184030037044e-002 -2.1057477044054425e+000
    1.7348114797939757e-002 -2.1650034217476484e+000
    1.6763729335850915e-002 -2.0589451852139748e+000
    1.6735308847529655e-002 -1.9594257442315970e+000
    1.6838320474772406e-002 -1.9480333139742647e+000
    1.5847320489230841e-002 -1.8762095507785799e+000
    1.5895566694763899e-002 -1.9356637109611894e+000
    1.4578371768011847e-002 -1.9488159117024406e+000
    1.3747035822731726e-002 -1.9422597755259536e+000
    1.3607781544306481e-002 -1.9710223577330590e+000
    1.3732434174139005e-002 -1.9710947480665950e+000
    1.3987979582194204e-002 -1.9817969643773001e+000
    1.4965910488004055e-002 -2.0038285149831143e+000
    1.5321349550334271e-002 -2.0760428640702937e+000
    1.5968066541018792e-002 -2.1672848408828007e+000
    1.6073733012481089e-002 -2.1205846338608976e+000
    1.5981787226253041e-002 -2.0993219077913818e+000
    1.6299940460741468e-002 -1.9439619468536669e+000
    1.7258747220721571e-002 -1.9697572572030679e+000
    1.8233376936361335e-002 -1.9937329423866532e+000
    1.7185732878071614e-002 -1.8566729270059512e+000
    1.8280350765417570e-002 -1.7771112422666651e+000
    1.7752870361584426e-002 -1.6918062767200397e+000
    1.8463848538072692e-002 -1.7109832978614028e+000
    1.7354123295770824e-002 -1.6195115775660414e+000
    1.7481237465687530e-002 -1.5987007882310904e+000
    1.7942531158814688e-002 -1.5838555778882251e+000
    1.7014754675106710e-002 -1.5177566283401736e+000
    1.7506489013228922e-002 -1.5332766627419663e+000
    1.7637833865722635e-002 -1.4675097724706605e+000
    1.8000746725035380e-002 -1.4535602980466069e+000
    1.8061469178753821e-002 -1.7351911461017064e+000
    1.9219605021827190e-002 -1.7869656573865520e+000
    1.8306733648509613e-002 -1.7613693017530319e+000
    1.8916691395096396e-002 -1.8162275726363384e+000
    1.9744406223905494e-002 -1.8602051292379531e+000
    1.9935410047398825e-002 -1.8808110074480440e+000
    1.9415734910466255e-002 -1.8796280510941856e+000
    1.7917484224188651e-002 -1.8324893686905321e+000
    1.7677179834597580e-002 -1.8112796051950162e+000
    1.7710181214305409e-002 -1.8418588462877625e+000
    1.7198493756357139e-002 -1.8144410912956781e+000
    1.7434624680752218e-002 -1.9775845709310373e+000
    1.6048215328412635e-002 -2.0753781322922200e+000
    1.6632064638881824e-002 -2.2348346854649899e+000
    1.5934609610277910e-002 -2.1703317684665429e+000
    1.5523262059339035e-002 -2.1612446402853576e+000
    1.6354467199006045e-002 -2.2508808962822489e+000
    1.7040483500670878e-002 -2.3156799900018816e+000
    1.6249082929472074e-002 -2.2491438954877592e+000
    1.5155153749905472e-002 -2.2705667850304807e+000
    1.4530430678479429e-002 -2.2561953254691334e+000
    1.3291849402248916e-002 -2.1270123769646418e+000
    1.3395079512490832e-002 -2.1167414934381346e+000
    1.3823214363053846e-002 -2.1328890638040581e+000
    1.4417339008632186e-002 -2.0984093657087750e+000
    1.4956528280180757e-002 -2.0182410482839153e+000
    1.5626256579634658e-002 -2.0262046031592940e+000
    1.5728778652298232e-002 -2.0569123035178105e+000
    1.6062571695749012e-002 -2.0512286497654721e+000
    1.6930086724601938e-002 -2.1243227866345764e+000
    1.6918767021760425e-002 -2.0600612987924478e+000
    1.7397426505600996e-002 -2.1212433603614929e+000
    1.7029569212736188e-002 -2.1027463318392825e+000
    1.6586913534136456e-002 -2.1008115844009256e+000
    1.6190552418561304e-002 -2.0866538152779128e+000
    1.5720094316164883e-002 -2.0911468320098381e+000
    1.5178227028634715e-002 -2.0150903312301707e+000
    1.5327663796999317e-002 -2.0039095692696014e+000
    1.4849360504207388e-002 -1.9776166185781909e+000
    1.4419706098863127e-002 -2.0012492107207898e+000
    1.3278237735674155e-002 -1.9639145908097106e+000
    1.2986486057403478e-002 -1.9144244862955626e+000
    1.3344904606467237e-002 -1.9591590905589755e+000
    1.3661454121679233e-002 -1.9849767566082741e+000
    1.4200801498989602e-002 -2.0187115559456528e+000
    1.4995211477644496e-002 -1.9850803765643668e+000
    1.5385982097244075e-002 -2.0543949428891612e+000
    1.6917469963696960e-002 -2.1924235479143466e+000
    1.7578708554918922e-002 -2.2034074092231113e+000
    1.6117134757671563e-002 -2.1027104739205078e+000
    1.5829387468561506e-002 -1.8627797038896488e+000
    1.7256078007929311e-002 -1.9306264418871388e+000
    1.6823673770092314e-002 -1.8403897413497412e+000
    1.8145711286883321e-002 -1.8461101030679150e+000
    1.8191774033718276e-002 -1.7468434447139476e+000
    1.7271654034174723e-002 -1.6477980408318598e+000
    1.8219255610396796e-002 -1.6661943047508116e+000
    1.7438608583709495e-002 -1.6074660269483645e+000
    1.7178566434335879e-002 -1.5505701274420789e+000
    1.7783265594104231e-002 -1.5513782175428072e+000
    1.6880565354100645e-002 -1.4943319520606237e+000
    1.7592390770462325e-002 -1.5072909092263971e+000
    1.7489068573541520e-002 -1.4126586937080858e+000
    1.8041778083501072e-002 -1.4609544586187417e+000
    1.8628292353618483e-002 -1.7665830582014861e+000
    1.8911255664908266e-002 -1.7528932929401875e+000
    1.8366629853892435e-002 -1.7927142639531437e+000
    1.8584276375875734e-002 -1.8057721878559256e+000
    1.9617023334004693e-002 -1.8269520659752227e+000
    2.0017654300473708e-002 -1.8866639178196469e+000
    1.9466739903338290e-002 -1.8711244997565875e+000
    1.7948340996869729e-002 -1.8315854645853253e+000
    1.7981411553282308e-002 -1.8677120928855730e+000
    1.7528566921401898e-002 -1.8419602406573161e+000
    1.8132999879988652e-002 -1.9059078088145216e+000
    1.8121720953548914e-002 -2.0801146837395077e+000
    1.5878382664540756e-002 -2.0853609232763528e+000
    1.6233221898185591e-002 -2.2307152425090031e+000
    1.5906007102723108e-002 -2.2016564831352565e+000
    1.5567457786059474e-002 -2.1546102883419933e+000
    1.6359021950581573e-002 -2.2074942120219303e+000
    1.6862905687063508e-002 -2.2220893220250710e+000
    1.6610232776107969e-002 -2.2702628869344710e+000
    1.5052641897320833e-002 -2.2177559062052694e+000
    1.4459596255863476e-002 -2.2643039184479545e+000
    1.3441841981162096e-002 -2.1886199140042142e+000
    1.3138293208894029e-002 -2.1224599862463331e+000
    1.3433696368195166e-002 -2.1513105183923971e+000
    1.3674429816357005e-002 -2.1247459281320431e+000
    1.3832351369613395e-002 -2.0450472816574852e+000
    1.4563960658103175e-002 -2.1122944368770353e+000
    1.4707644115118221e-002 -2.1501174968291878e+000
    1.4577505710363150e-002 -2.0793770645425149e+000
    1.4820785333286828e-002 -2.0560310891522788e+000
    1.4863027986154966e-002 -2.0155327594082286e+000
    1.5126634148044979e-002 -2.0487585321703303e+000
    1.4709272098887439e-002 -2.0225249135970227e+000
    1.4568963615438191e-002 -2.0611614714984223e+000
    1.4459008659273947e-002 -2.1321873840765044e+000
    1.3808927506904047e-002 -2.1104644206385021e+000
    1.3463570376955765e-002 -2.0400514733082495e+000
    1.3704343927906620e-002 -2.0403157757428594e+000
    1.3505027708723371e-002 -2.0472978909867074e+000
    1.3218645797604067e-002 -2.0148992951490770e+000
    1.2753950411823166e-002 -1.9495324200929698e+000
    1.2748554030206694e-002 -1.8948297269896497e+000
    1.3170374475207984e-002 -1.9253833161375484e+000
    1.3494414341540483e-002 -1.9546016582562269e+000
    1.4178763985546277e-002 -1.9644339912355662e+000
    1.5405972334908856e-002 -1.9908551154218528e+000
    1.6159679093711000e-002 -2.1021049221069061e+000
    1.6764234107272975e-002 -2.1404334619107459e+000
    1.6986772396693599e-002 -2.1597467761510432e+000
    1.6281911106604468e-002 -2.0930009062989883e+000
    1.5422715085128574e-002 -1.7848120636016056e+000
    1.7298207248609615e-002 -1.9186594873249498e+000
    1.6746410484868871e-002 -1.8331338620043960e+000
    1.7584922944329090e-002 -1.7578642614706115e+000
    1.7804826609917990e-002 -1.6882790946190094e+000
    1.7320085388286433e-002 -1.6598415163774498e+000
    1.9032090938692330e-002 -1.7736096174771852e+000
    1.7488640627044950e-002 -1.6226960124665279e+000
    1.7202838840929723e-002 -1.5763125066504295e+000
    1.8165368254419570e-002 -1.5819008188223709e+000
    1.6894920094935397e-002 -1.4799145483158889e+000
    1.7716766261450745e-002 -1.5202672763397258e+000
    1.7709014631062243e-002 -1.4458145516645815e+000
    1.8052748211836316e-002 -1.4788209576862583e+000
    1.8628098593603627e-002 -1.7831969141805568e+000
    1.8449353124307483e-002 -1.7157898405605958e+000
    1.8263208717645522e-002 -1.7580512582247820e+000
    1.7944702584184267e-002 -1.7741756543053611e+000
    1.9407241397814256e-002 -1.8222013441019169e+000
    1.9596974340974554e-002 -1.8437486692466891e+000
    1.9330877774385583e-002 -1.8679611296986640e+000
    1.8385142526942590e-002 -1.8590881026648853e+000
    1.7815377123160642e-002 -1.8273486820613343e+000
    1.8167763952326509e-002 -1.9192944918207790e+000
    1.8450640628807736e-002 -2.0227613041748862e+000
    1.6778306921390245e-002 -2.0253813355106796e+000
    1.5036562778583683e-002 -1.9801721125796752e+000
    1.5820933124290032e-002 -2.2218993817529706e+000
    1.5899632384975916e-002 -2.1950956758162583e+000
    1.6230152691615117e-002 -2.2047889567145251e+000
    1.7095444759503736e-002 -2.2392997462954716e+000
    1.7518963287601618e-002 -2.2144803831875475e+000
    1.6645408552423031e-002 -2.1811429992442890e+000
    1.5339414357501273e-002 -2.2293282199568516e+000
    1.4671874478007940e-002 -2.2676779327140126e+000
    1.3498999604513577e-002 -2.1845881026637808e+000
    1.3408852634171355e-002 -2.1759055982903539e+000
    1.3215777901990303e-002 -2.1642409621402217e+000
    1.3096432112402835e-002 -2.1339388847911622e+000
    1.3209391243282973e-002 -2.1190065119433101e+000
    1.3713082625397686e-002 -2.1777681217000611e+000
    1.3867780062726808e-002 -2.1864866565565930e+000
    1.3680321638528633e-002 -2.1367359511606629e+000
    1.3713714193876136e-002 -2.1125650198661567e+000
    1.3801784555489516e-002 -2.1013216985732788e+000
    1.3542977503995803e-002 -2.0441834734900333e+000
    1.3521538813880416e-002 -2.1257790663821998e+000
    1.3565036185903790e-002 -2.1624928519694957e+000
    1.3709922621832144e-002 -2.2489169500741082e+000
    1.2966606689221370e-002 -2.1336242578383064e+000
    1.2838885108894443e-002 -2.1002276223966496e+000
    1.3051750574485457e-002 -2.1165588848290580e+000
    1.3011830030460719e-002 -2.1065223402885156e+000
    1.2793977059400403e-002 -2.0187068088725351e+000
    1.2472367954880622e-002 -1.9152508839286326e+000
    1.2444195494743794e-002 -1.8033713304466215e+000
    1.3151623666612208e-002 -1.9217027248095029e+000
    1.3490588418106747e-002 -1.9066698297590869e+000
    1.4950045855238805e-002 -2.0394354220854938e+000
    1.5709537457383765e-002 -2.0078285016960966e+000
    1.6639792884843640e-002 -2.0916615841793331e+000
    1.7131266599711408e-002 -2.1458950852638505e+000
    1.7004184109188372e-002 -2.1326080903607085e+000
    1.6001714198345271e-002 -2.0358371385442373e+000
    1.5285595075059112e-002 -1.8089773885852696e+000
    1.6322368082904052e-002 -1.8444275933681580e+000
    1.6091475981843961e-002 -1.7782996611840176e+000
    1.6984946075484349e-002 -1.6991012127654166e+000
    1.7646160089762931e-002 -1.6684024218202047e+000
    1.7929803004999464e-002 -1.6969277844017350e+000
    1.9293577992419046e-002 -1.7692670389952845e+000
    1.8211889417793996e-002 -1.6960906061357433e+000
    1.7905180630391867e-002 -1.6487687163819176e+000
    1.8352326989662892e-002 -1.5724011588643314e+000
    1.8199772800004458e-002 -1.5567305662860957e+000
    1.8051457182761275e-002 -1.5588722667113131e+000
    1.7560855025731750e-002 -1.5102335322129306e+000
    1.7326162100603480e-002 -1.4665358635153658e+000
    1.8426908121427974e-002 -1.7468270163206068e+000
    1.8671076788725541e-002 -1.7619717345741353e+000
    1.8022347451658909e-002 -1.7170576982812649e+000
    1.7581650094434437e-002 -1.7248854574789785e+000
    1.8477643633531559e-002 -1.7454774075246775e+000
    1.9423343282614081e-002 -1.8435989999081199e+000
    1.9395123502316664e-002 -1.8790180364506310e+000
    1.8523699952688145e-002 -1.8525905155063465e+000
    1.7396862352304768e-002 -1.7757225929602509e+000
    1.8152863912437783e-002 -1.8861690027113924e+000
    1.7588638317512170e-002 -2.0365130509062306e+000
    1.5644144566327005e-002 -1.9542143920770152e+000
    1.4898923051741435e-002 -2.0097582988009788e+000
    1.5304684692012727e-002 -2.1971332464402553e+000
    1.5378407828929113e-002 -2.1002511263508903e+000
    1.5975207747796899e-002 -2.1342116826878192e+000
    1.7065523542415396e-002 -2.1886533943147746e+000
    1.7135811925625997e-002 -2.1605402869560111e+000
    1.5756067870009834e-002 -2.1124385280006042e+000
    1.5387409069566281e-002 -2.2201833086088492e+000
    1.4386137456017937e-002 -2.1699090662827056e+000
    1.3832100819774665e-002 -2.1711458251039164e+000
    1.3359916020813383e-002 -2.1519007590667272e+000
    1.3047005401682861e-002 -2.1451451381266904e+000
    1.2765940492948819e-002 -2.1120032741727353e+000
    1.2753595986526662e-002 -2.0896159709829338e+000
    1.2831504593061630e-002 -2.0973399769373358e+000
    1.3095526828129863e-002 -2.1793139229812781e+000
    1.3047333861924271e-002 -2.1910201363845685e+000
    1.2857074398491080e-002 -2.0995296371916918e+000
    1.3062853076666367e-002 -2.1024973047205870e+000
    1.2952715528792173e-002 -2.0528512123191693e+000
    1.3019426517307904e-002 -2.1103870411864811e+000
    1.2845408207507961e-002 -2.1022122217691899e+000
    1.2891312199036447e-002 -2.1402647610447891e+000
    1.2395394653233463e-002 -2.0821311732990972e+000
    1.2383346223070097e-002 -2.0410408149810180e+000
    1.2503105230372256e-002 -2.0317545999354918e+000
    1.2462330415240103e-002 -1.9881867844599121e+000
    1.2361686875405635e-002 -1.9073788522872908e+000
    1.2483636153283512e-002 -1.8872582798874680e+000
    1.2266027275263040e-002 -1.7422139454900396e+000
    1.2956714819524004e-002 -1.8568206309217850e+000
    1.3954961714058621e-002 -1.9061813179417695e+000
    1.5380529806540833e-002 -2.0675826497078460e+000
    1.5939410078536480e-002 -2.0590302233595157e+000
    1.6568426666927802e-002 -2.0673057130484556e+000
    1.7514268081647758e-002 -2.1630121080834979e+000
    1.5778147435820084e-002 -2.0158461700145374e+000
    1.4438801778705193e-002 -1.9182979505994042e+000
    1.4441853888009865e-002 -1.7330224665611837e+000
    1.4191482111243967e-002 -1.6783117058702091e+000
    1.4651302549259716e-002 -1.6503645800130406e+000
    1.4880674989364082e-002 -1.6062271443876681e+000
    1.6755811197224586e-002 -1.6259121079592573e+000
    1.8032430726742679e-002 -1.6896816934546621e+000
    1.9028120129907341e-002 -1.7268019017890912e+000
    1.8554508069832564e-002 -1.7120951434437166e+000
    1.8045521681364595e-002 -1.6595435117683510e+000
    1.9246700225602497e-002 -1.6510919264963286e+000
    1.8688959046962658e-002 -1.6383987431170597e+000
    1.8117129477728835e-002 -1.6055227599073030e+000
    1.7335050337395127e-002 -1.5182614920501898e+000
    1.7663126779943941e-002 -1.5287015677403863e+000
    1.8602757239258780e-002 -1.7548600995700783e+000
    1.8960872172274018e-002 -1.8073774224214054e+000
    1.8272653872912326e-002 -1.7720123624850455e+000
    1.7626975639712102e-002 -1.7419229141101209e+000
    1.8583920254799467e-002 -1.7962243874847246e+000
    1.9074496419617358e-002 -1.8218414854117864e+000
    1.9419270982845793e-002 -1.8762714678187673e+000
    1.8949846664697199e-002 -1.8787419407571222e+000
    1.7844082474044710e-002 -1.8334794742080940e+000
    1.7879624882034213e-002 -1.9493048174960632e+000
    1.6584465147705556e-002 -2.0185663294064478e+000
    1.4881913606439142e-002 -1.9078967574731325e+000
    1.4609529938150831e-002 -2.0853364756955770e+000
    1.4571498270209125e-002 -2.1222346409254573e+000
    1.4545147732508475e-002 -2.0654109780162035e+000
    1.5467706989553277e-002 -2.0999253632007808e+000
    1.6948737487925501e-002 -2.2402599086718666e+000
    1.6364419826575046e-002 -2.1573760138034772e+000
    1.5681320063086226e-002 -2.1248188685481835e+000
    1.5454544184732032e-002 -2.1976729796026682e+000
    1.4513441206420199e-002 -2.1343397526536751e+000
    1.4157610910287275e-002 -2.1757214195345052e+000
    1.3531025440409020e-002 -2.1485335395735179e+000
    1.2814316962852639e-002 -2.0992597110216091e+000
    1.2508127810698329e-002 -2.0809653113632041e+000
    1.2431332194539178e-002 -2.0433262334524098e+000
    1.2539841768988282e-002 -2.0645953769655705e+000
    1.2844546626104928e-002 -2.1239375313880648e+000
    1.3010379088483712e-002 -2.1735077351034753e+000
    1.3080973072329987e-002 -2.0736456837041204e+000
    1.3529121463980966e-002 -2.1018456560113288e+000
    1.3675401834084413e-002 -2.0646600721411730e+000
    1.3725696333732867e-002 -2.1162082525973136e+000
    1.3601156973490080e-002 -2.1170848503378905e+000
    1.3595445685507376e-002 -2.1539070378896685e+000
    1.2813557181533215e-002 -2.0674064343014247e+000
    1.2652965648350429e-002 -2.0018799222211574e+000
    1.2543007557478125e-002 -1.9462566726686890e+000
    1.2564283095510940e-002 -1.9601777376984628e+000
    1.2398717528365820e-002 -1.8946421213583768e+000
    1.2456328358713702e-002 -1.8734911009998678e+000
    1.2373587424754801e-002 -1.7577859373761788e+000
    1.3158660119298112e-002 -1.8514548089283858e+000
    1.4280672142078383e-002 -1.8913390188169290e+000
    1.5514610788882376e-002 -2.0157912160697884e+000
    1.6189479471964963e-002 -2.0456563704218587e+000
    1.6310825055229496e-002 -2.0456493090100327e+000
    1.6577507410682171e-002 -2.0672546443678064e+000
    1.4673255768791473e-002 -1.9627226406921545e+000
    1.3733450184851555e-002 -1.8904748153266491e+000
    1.3168130193865150e-002 -1.7170301192072022e+000
    1.3794938030223847e-002 -1.7371768390917601e+000
    1.4185944065829639e-002 -1.6742791603408933e+000
    1.4539394498536180e-002 -1.6408745219776546e+000
    1.7196521542290934e-002 -1.7061406015887217e+000
    1.8068507978399647e-002 -1.7076891052442238e+000
    1.9492251902896975e-002 -1.7775077330498907e+000
    1.9138780322480019e-002 -1.7543881962273351e+000
    1.8576398287344260e-002 -1.6904522441483276e+000
    1.9766768299973741e-002 -1.6709978773584946e+000
    1.9501136089311900e-002 -1.6940451195679636e+000
    1.8674796814641348e-002 -1.6420482056302499e+000
    1.8126050894991804e-002 -1.5765348552239300e+000
    1.8712414144637989e-002 -1.6239702275525114e+000
    1.7969700757373929e-002 -1.7635977743308413e+000
    1.8530469963301571e-002 -1.7564238315215133e+000
    1.8354973147271841e-002 -1.7544295166600667e+000
    1.8086093042872547e-002 -1.7821260966173342e+000
    1.8182641532248928e-002 -1.7699935691571369e+000
    1.8820682623915272e-002 -1.7993916922936137e+000
    1.9116316313821432e-002 -1.8356215165152816e+000
    1.9072049302613085e-002 -1.8549838428851060e+000
    1.9180440349950718e-002 -1.9717036002598149e+000
    1.8075112684824236e-002 -2.0758406198868977e+000
    1.5819938725738746e-002 -1.9938772772547155e+000
    1.4703670002390734e-002 -1.9844703192512352e+000
    1.4216099435659485e-002 -2.0684424678884552e+000
    1.4000856606390062e-002 -2.0439583876685874e+000
    1.4169269569675248e-002 -2.0572429960923730e+000
    1.5590670097203770e-002 -2.2055230091080049e+000
    1.7284350539672574e-002 -2.3582850182760402e+000
    1.7320169334192868e-002 -2.3068816013208311e+000
    1.6270541236925291e-002 -2.0981250318854139e+000
    1.6020725697897201e-002 -2.0918490411254349e+000
    1.5122530791873721e-002 -2.0973509967301056e+000
    1.4765367181154605e-002 -2.1959968118352915e+000
    1.3695983998906145e-002 -2.1070619192602873e+000
    1.3252079308678088e-002 -2.1559870932427949e+000
    1.2887012638768257e-002 -2.1309595899106082e+000
    1.2869667748927659e-002 -2.1058759905834603e+000
    1.3354263845402585e-002 -2.1581444250159536e+000
    1.3599903376884593e-002 -2.1450609504802856e+000
    1.4233565242832884e-002 -2.1482516684361346e+000
    1.5000857216333534e-002 -2.1201211532418061e+000
    1.5682025094200122e-002 -2.1663597522987881e+000
    1.5569777749490990e-002 -2.1093341760619939e+000
    1.5102832873019563e-002 -2.1782240506741908e+000
    1.5007434014516739e-002 -2.1480283232920803e+000
    1.4801748786104242e-002 -2.0868703675456257e+000
    1.4369102745404681e-002 -2.0178325712475429e+000
    1.4449626893466969e-002 -2.0501268251945159e+000
    1.3981410867275171e-002 -2.0745750601156874e+000
    1.3653595507781238e-002 -2.0837987429732796e+000
    1.3006698970457510e-002 -1.9527081037671388e+000
    1.2353686721519239e-002 -1.8314340564652272e+000
    1.2482811287521193e-002 -1.7875682973522908e+000
    1.3313804640854906e-002 -1.8277951799802235e+000
    1.5238612830510159e-002 -1.9469142011551788e+000
    1.6048867614860324e-002 -1.9518479946834890e+000
    1.6860272263685562e-002 -1.9471607289287338e+000
    1.7016902441582236e-002 -1.9599825133608113e+000
    1.5858804097737985e-002 -1.9657365269719989e+000
    1.4511876509863301e-002 -1.8970823327953441e+000
    1.3850862137285208e-002 -1.8743184513633449e+000
    1.2861427119629908e-002 -1.7384362323366425e+000
    1.3241421437212200e-002 -1.7135029883630548e+000
    1.3656024050308982e-002 -1.6746512350265812e+000
    1.3914090040128429e-002 -1.6264577393335837e+000
    1.6620027861350483e-002 -1.7346164792911867e+000
    1.7634731522161370e-002 -1.6828572366862564e+000
    1.8684307906781616e-002 -1.6924868912226345e+000
    1.8460834016151572e-002 -1.6667495854582564e+000
    1.8918235657589100e-002 -1.6584986593153113e+000
    1.9851345705025381e-002 -1.6781476887069671e+000
    1.9932852154314711e-002 -1.7559893564515343e+000
    1.9558234791804172e-002 -1.7162351029808161e+000
    1.8718261522489139e-002 -1.6070964535737104e+000
    1.8773964015613914e-002 -1.6004804323310862e+000
    1.7555130740636308e-002 -1.7525872189401914e+000
    1.7942020349746485e-002 -1.7739104643410066e+000
    1.8236975474684784e-002 -1.7624734155177508e+000
    1.8210514306080443e-002 -1.7594825489065342e+000
    1.8617237096535986e-002 -1.7668644539712484e+000
    1.9504984051360360e-002 -1.8025856094132200e+000
    1.9316360913427710e-002 -1.8086092688584396e+000
    1.8254836803614245e-002 -1.7641995853778623e+000
    1.7599643675075355e-002 -1.8596956816662960e+000
    1.6672146713523558e-002 -2.0379714577911892e+000
    1.5320585280947187e-002 -2.0060847322040254e+000
    1.4885625704757228e-002 -2.1224421317366349e+000
    1.3966102923708128e-002 -2.0575062342962869e+000
    1.3819315182652649e-002 -2.0752004965950057e+000
    1.4101735742343396e-002 -2.1337269200617208e+000
    1.4987738822370787e-002 -2.2569036710020010e+000
    1.6704817504604234e-002 -2.3774534912802814e+000
    1.7067905865183548e-002 -2.2033853714529807e+000
    1.6182039971878823e-002 -1.9724750865722294e+000
    1.5692274625056922e-002 -1.9081058692896598e+000
    1.5752838381839041e-002 -2.1136933500203310e+000
    1.5176527758470934e-002 -2.1859620160683311e+000
    1.4691540681872796e-002 -2.2371368674027967e+000
    1.3959362374776805e-002 -2.2220313608707221e+000
    1.3307962745312667e-002 -2.0941029948517005e+000
    1.3484412128562110e-002 -2.0775626400934626e+000
    1.4391986892679804e-002 -2.1163074059331062e+000
    1.4994209270160637e-002 -2.1029378501400293e+000
    1.6395167444358254e-002 -2.2254488000068191e+000
    1.7282582382859686e-002 -2.2915881259558475e+000
    1.7717764111285356e-002 -2.3113245134698208e+000
    1.7474957232191123e-002 -2.2469882507725756e+000
    1.6150913691283943e-002 -2.2153669946544472e+000
    1.5396717096300730e-002 -2.0813062217677949e+000
    1.6085704761936243e-002 -2.1976136648569087e+000
    1.5877864404757743e-002 -2.1183717426680952e+000
    1.6050099472770165e-002 -2.1788010034285499e+000
    1.4931551032807433e-002 -2.0888173355538111e+000
    1.4484216588163807e-002 -2.0412399520319422e+000
    1.3614797594293876e-002 -1.9887329343093556e+000
    1.2748585744102174e-002 -1.9015122712840016e+000
    1.2818009103482799e-002 -1.8222936275451378e+000
    1.3925951433100853e-002 -1.8833191461907821e+000
    1.5261913308381756e-002 -1.9046504429972138e+000
    1.6670745662672112e-002 -1.9439280210223018e+000
    1.7657997925614927e-002 -1.9440614859057959e+000
    1.6855223564963447e-002 -1.9281171813777829e+000
    1.5506655081119789e-002 -1.9111952387480140e+000
    1.4183470437061259e-002 -1.8409806925628440e+000
    1.3462090957398587e-002 -1.8157796493729284e+000
    1.2862776309974015e-002 -1.7713880518307072e+000
    1.2928020962284348e-002 -1.7543632255842774e+000
    1.3456082848330697e-002 -1.7342327728098585e+000
    1.3841154755042471e-002 -1.6393529602133041e+000
    1.5005882205036599e-002 -1.6572567763824348e+000
    1.6702085426509340e-002 -1.6777642479629262e+000
    1.8152496416284952e-002 -1.6646271416028926e+000
    1.9111827060700234e-002 -1.7141488699442329e+000
    1.9173619720375016e-002 -1.6893328517916131e+000
    2.0364042077739355e-002 -1.7418528848637771e+000
    1.8923567924451230e-002 -1.6731587973202295e+000
    1.8445931621911691e-002 -1.6564007407628558e+000
    1.7994006423480993e-002 -1.5654785588428464e+000
    1.8170865449670837e-002 -1.5551232347343291e+000
    1.7485316677775000e-002 -1.7410379606298820e+000
    1.7312997468578808e-002 -1.7426356380575454e+000
    1.7981126053575276e-002 -1.7630065973481663e+000
    1.8093569918077243e-002 -1.7561532802629019e+000
    1.8613241986530173e-002 -1.7935188171306575e+000
    1.9348181457465429e-002 -1.8219537539113280e+000
    1.9290757157143335e-002 -1.8300957593485148e+000
    1.8267243925413162e-002 -1.7782292092631362e+000
    1.7852511228561824e-002 -1.9240331446686927e+000
    1.5947093365363759e-002 -1.9994617538572752e+000
    1.4854713660803640e-002 -1.9997274056710423e+000
    1.4555180779195282e-002 -2.1184719072195417e+000
    1.3874619650500405e-002 -2.0643451951423102e+000
    1.3752960836741364e-002 -2.0547578392988584e+000
